000000000 000010000 -0.0067291259765625
000000000 000000001 -0.00504684448242188
000000000 000000100 -0.00504684448242188
000000000 001000000 -0.00504684448242188
000000000 100000000 -0.00504684448242188
000000000 000000010 -0.00336456298828125
000000000 000001000 -0.00336456298828125
000000000 000100000 -0.00336456298828125
000000000 010000000 -0.00336456298828125
000000001 000020001 -0.00504684448242188
000000001 000000201 -0.00336456298828125
000000001 000200001 -0.00336456298828125
000000001 002000001 -0.00336456298828125
000000001 020000001 -0.00336456298828125
000000001 200000001 -0.00336456298828125
000000001 000000021 -0.00168228149414063
000000001 000002001 -0.00168228149414063
000000010 000020010 -0.00504684448242188
000000010 002000010 -0.00504684448242188
000000010 200000010 -0.00504684448242188
000000010 000000012 -0.00336456298828125
000000010 000000210 -0.00336456298828125
000000010 000002010 -0.00336456298828125
000000010 000200010 -0.00336456298828125
000000010 020000010 -0.00168228149414063
000000012 000010012 -0.111030578613281
000000012 010000012 -0.109348297119141
000000012 000000112 -0.00336456298828125
000000012 000100012 -0.00336456298828125
000000012 001000012 -0.00336456298828125
000000012 100000012 -0.00336456298828125
000000012 000001012 -0.00168228149414063
000000021 000010021 -0.111030578613281
000000021 001000021 -0.111030578613281
000000021 100000021 -0.111030578613281
000000021 000001021 -0.109348297119141
000000021 000000121 -0.00336456298828125
000000021 000100021 -0.00336456298828125
000000021 010000021 -0.00168228149414063
000000100 000020100 -0.00504684448242188
000000100 000000102 -0.00336456298828125
000000100 000002100 -0.00336456298828125
000000100 002000100 -0.00336456298828125
000000100 020000100 -0.00336456298828125
000000100 200000100 -0.00336456298828125
000000100 000000120 -0.00168228149414063
000000100 000200100 -0.00168228149414063
000000102 000010102 -0.111030578613281
000000102 000100102 -0.109348297119141
000000102 001000102 -0.109348297119141
000000102 100000102 -0.109348297119141
000000102 010000102 -0.00336456298828125
000000102 000000112 -0.00168228149414063
000000102 000001102 -0.00168228149414063
000000112 000002112 -0.109348297119141
000000112 000020112 -0.109348297119141
000000112 002000112 -0.109348297119141
000000112 200000112 -0.109348297119141
000000112 000200112 -0.00168228149414063
000000112 020000112 -0.00168228149414063
000000120 000010120 -0.111030578613281
000000120 001000120 -0.111030578613281
000000120 100000120 -0.111030578613281
000000120 000100120 -0.109348297119141
000000120 000000121 -0.00336456298828125
000000120 000001120 -0.00336456298828125
000000120 010000120 -0.00168228149414063
000000121 000020121 -0.109348297119141
000000121 020000121 -0.109348297119141
000000121 000002121 -0.00168228149414063
000000121 000200121 -0.00168228149414063
000000121 002000121 -0.00168228149414063
000000121 200000121 -0.00168228149414063
000000201 000010201 -0.111030578613281
000000201 000001201 -0.109348297119141
000000201 001000201 -0.109348297119141
000000201 100000201 -0.109348297119141
000000201 010000201 -0.00336456298828125
000000201 000000211 -0.00168228149414063
000000201 000100201 -0.00168228149414063
000000210 000010210 -0.111030578613281
000000210 010000210 -0.109348297119141
000000210 000000211 -0.00336456298828125
000000210 000001210 -0.00336456298828125
000000210 001000210 -0.00336456298828125
000000210 100000210 -0.00336456298828125
000000210 000100210 -0.00168228149414063
000000211 000020211 -0.109348297119141
000000211 000200211 -0.109348297119141
000000211 002000211 -0.109348297119141
000000211 200000211 -0.109348297119141
000000211 000002211 -0.00168228149414063
000000211 020000211 -0.00168228149414063
000001000 000001200 -0.00504684448242188
000001000 000021000 -0.00504684448242188
000001000 200001000 -0.00504684448242188
000001000 000001002 -0.00336456298828125
000001000 000001020 -0.00336456298828125
000001000 002001000 -0.00336456298828125
000001000 020001000 -0.00336456298828125
000001000 000201000 -0.00168228149414063
000001002 000011002 -0.111030578613281
000001002 000101002 -0.109348297119141
000001002 000001102 -0.00336456298828125
000001002 001001002 -0.00336456298828125
000001002 010001002 -0.00336456298828125
000001002 100001002 -0.00336456298828125
000001002 000001012 -0.00168228149414063
000001012 200001012 -0.111030578613281
000001012 000021012 -0.109348297119141
000001012 000001212 -0.00336456298828125
000001012 002001012 -0.00336456298828125
000001012 000201012 -0.00168228149414063
000001012 020001012 -0.00168228149414063
000001020 000011020 -0.111030578613281
000001020 001001020 -0.111030578613281
000001020 000001021 -0.109348297119141
000001020 000101020 -0.109348297119141
000001020 100001020 -0.00504684448242188
000001020 000001120 -0.00336456298828125
000001020 010001020 -0.00168228149414063
000001021 000021021 -0.109348297119141
000001021 020001021 -0.109348297119141
000001021 000001221 -0.00336456298828125
000001021 002001021 -0.00336456298828125
000001021 200001021 -0.00336456298828125
000001021 000201021 -0.00168228149414063
000001102 000021102 -0.109348297119141
000001102 200001102 -0.109348297119141
000001102 020001102 -0.00336456298828125
000001102 000001122 -0.00168228149414063
000001102 002001102 -0.00168228149414063
000001102 000201102 0
000001120 000021120 -0.109348297119141
000001120 020001120 -0.109348297119141
000001120 200001120 -0.00336456298828125
000001120 000001122 -0.00168228149414063
000001120 002001120 -0.00168228149414063
000001120 000201120 0
000001122 000011122 -0.21533203125
000001122 000101122 -0.21533203125
000001122 001001122 -0.109348297119141
000001122 100001122 -0.109348297119141
000001122 010001122 -0.00168228149414063
000001200 000011200 -0.111030578613281
000001200 000001201 -0.109348297119141
000001200 001001200 -0.109348297119141
000001200 000101200 -0.107666015625
000001200 010001200 -0.00336456298828125
000001200 100001200 -0.00336456298828125
000001200 000001210 -0.00168228149414063
000001201 000021201 -0.109348297119141
000001201 002001201 -0.109348297119141
000001201 200001201 -0.109348297119141
000001201 000201201 -0.107666015625
000001201 020001201 -0.00336456298828125
000001201 000001221 -0.00168228149414063
000001210 200001210 -0.111030578613281
000001210 000021210 -0.109348297119141
000001210 002001210 -0.109348297119141
000001210 000201210 -0.107666015625
000001210 000001212 -0.00168228149414063
000001210 020001210 -0.00168228149414063
000001212 000011212 -0.21533203125
000001212 010001212 -0.109348297119141
000001212 000101212 -0.107666015625
000001212 001001212 -0.00168228149414063
000001212 100001212 -0.00168228149414063
000001221 000011221 -0.21533203125
000001221 100001221 -0.109348297119141
000001221 000101221 -0.107666015625
000001221 010001221 -0.00168228149414063
000001221 001001221 1.10769271850586
000002001 000002101 -0.111030578613281
000002001 000012001 -0.111030578613281
000002001 100002001 -0.111030578613281
000002001 000002011 -0.109348297119141
000002001 001002001 -0.00336456298828125
000002001 010002001 -0.00336456298828125
000002001 000102001 -0.00168228149414063
000002010 000002110 -0.111030578613281
000002010 000012010 -0.111030578613281
000002010 000002011 -0.109348297119141
000002010 010002010 -0.109348297119141
000002010 100002010 -0.00504684448242188
000002010 001002010 -0.00336456298828125
000002010 000102010 -0.00168228149414063
000002011 000022011 -0.109348297119141
000002011 000202011 -0.109348297119141
000002011 000002211 -0.00336456298828125
000002011 002002011 -0.00336456298828125
000002011 200002011 -0.00336456298828125
000002011 020002011 -0.00168228149414063
000002100 000012100 -0.111030578613281
000002100 100002100 -0.111030578613281
000002100 000002101 -0.109348297119141
000002100 000002110 -0.109348297119141
000002100 001002100 -0.109348297119141
000002100 000102100 -0.107666015625
000002100 010002100 -0.00336456298828125
000002101 000022101 -0.109348297119141
000002101 000202101 -0.107666015625
000002101 020002101 -0.00336456298828125
000002101 000002121 -0.00168228149414063
000002101 002002101 -0.00168228149414063
000002101 200002101 -0.00168228149414063
000002110 000002112 -0.109348297119141
000002110 000022110 -0.109348297119141
000002110 002002110 -0.109348297119141
000002110 000202110 -0.107666015625
000002110 200002110 -0.00336456298828125
000002110 020002110 -0.00168228149414063
000002112 000012112 -0.21533203125
000002112 001002112 -0.109348297119141
000002112 010002112 -0.109348297119141
000002112 100002112 -0.109348297119141
000002112 000102112 -0.107666015625
000002121 100002121 -0.217014312744141
000002121 000012121 -0.21533203125
000002121 001002121 -0.109348297119141
000002121 000102121 -0.107666015625
000002121 010002121 -0.00168228149414063
000002211 000012211 -0.21533203125
000002211 010002211 -0.109348297119141
000002211 100002211 -0.109348297119141
000002211 001002211 -0.00168228149414063
000002211 000102211 0
000010000 000010002 -0.00336456298828125
000010000 000010200 -0.00336456298828125
000010000 002010000 -0.00336456298828125
000010000 200010000 -0.00336456298828125
000010000 000010020 -0.00168228149414063
000010000 000012000 -0.00168228149414063
000010000 000210000 -0.00168228149414063
000010000 020010000 -0.00168228149414063
000010002 000010102 -0.109348297119141
000010002 000110002 -0.109348297119141
000010002 001010002 -0.109348297119141
000010002 010010002 -0.109348297119141
000010002 000010012 -0.107666015625
000010002 000011002 -0.107666015625
000010002 100010002 -0.00336456298828125
000010012 002010012 -0.109348297119141
000010012 000012012 -0.107666015625
000010012 200010012 -0.00336456298828125
000010012 000010212 -0.00168228149414063
000010012 000210012 -0.00168228149414063
000010012 020010012 -0.00168228149414063
000010020 001010020 -0.111030578613281
000010020 100010020 -0.111030578613281
000010020 000010021 -0.109348297119141
000010020 000010120 -0.109348297119141
000010020 000011020 -0.109348297119141
000010020 000110020 -0.109348297119141
000010020 010010020 -0.00168228149414063
000010021 200010021 -0.00336456298828125
000010021 000010221 -0.00168228149414063
000010021 000210021 -0.00168228149414063
000010021 002010021 -0.00168228149414063
000010021 020010021 -0.00168228149414063
000010021 000012021 0
000010102 002010102 -0.109348297119141
000010102 000012102 -0.107666015625
000010102 020010102 -0.00168228149414063
000010102 200010102 -0.00168228149414063
000010102 000010122 0
000010102 000210102 0
000010120 002010120 -0.00336456298828125
000010120 000010122 -0.00168228149414063
000010120 000012120 -0.00168228149414063
000010120 020010120 -0.00168228149414063
000010120 200010120 -0.00168228149414063
000010120 000210120 0
000010122 000110122 -0.21533203125
000010122 100010122 -0.109348297119141
000010122 000011122 -0.107666015625
000010122 010010122 -0.00168228149414063
000010122 001010122 1.10769271850586
000010200 000010201 -0.109348297119141
000010200 000011200 -0.109348297119141
000010200 010010200 -0.109348297119141
000010200 100010200 -0.109348297119141
000010200 000010210 -0.107666015625
000010200 000110200 -0.107666015625
000010200 001010200 -0.00336456298828125
000010201 200010201 -0.109348297119141
000010201 000210201 -0.107666015625
000010201 002010201 -0.00168228149414063
000010201 020010201 -0.00168228149414063
000010201 000010221 0
000010201 000012201 0
000010210 200010210 -0.109348297119141
000010210 000210210 -0.107666015625
000010210 002010210 -0.00336456298828125
000010210 000010212 -0.00168228149414063
000010210 000012210 -0.00168228149414063
000010210 020010210 -0.00168228149414063
000010212 000011212 -0.107666015625
000010212 000110212 -0.107666015625
000010212 001010212 -0.00168228149414063
000010212 100010212 -0.00168228149414063
000010212 010010212 1.10769271850586
000010221 000011221 -0.21533203125
000010221 001010221 -0.109348297119141
000010221 000110221 -0.107666015625
000010221 010010221 -0.00168228149414063
000010221 100010221 1.10769271850586
000011002 000011202 -0.109348297119141
000011002 000011022 -0.107666015625
000011002 200011002 -0.00336456298828125
000011002 000211002 -0.00168228149414063
000011002 002011002 -0.00168228149414063
000011002 020011002 -0.00168228149414063
000011020 000011220 -0.109348297119141
000011020 000011022 -0.107666015625
000011020 200011020 -0.00336456298828125
000011020 000211020 -0.00168228149414063
000011020 002011020 -0.00168228149414063
000011020 020011020 -0.00168228149414063
000011022 000011122 -0.109348297119141
000011022 001011022 -0.109348297119141
000011022 100011022 -0.00336456298828125
000011022 010011022 -0.00168228149414063
000011022 000111022 1.10769271850586
000011122 002011122 -0.00168228149414063
000011122 020011122 -0.00168228149414063
000011122 200011122 -0.00168228149414063
000011122 000211122 0
000011200 200011200 -0.109348297119141
000011200 000011202 -0.107666015625
000011200 000011220 -0.107666015625
000011200 000211200 -0.107666015625
000011200 002011200 -0.00168228149414063
000011200 020011200 -0.00168228149414063
000011202 010011202 -0.109348297119141
000011202 000011212 -0.107666015625
000011202 001011202 -0.00168228149414063
000011202 100011202 -0.00168228149414063
000011202 000111202 1.109375
000011212 200011212 -0.109348297119141
000011212 000211212 -0.107666015625
000011212 002011212 -0.00168228149414063
000011212 020011212 -0.00168228149414063
000011220 000011221 -0.21533203125
000011220 001011220 -0.109348297119141
000011220 100011220 -0.109348297119141
000011220 010011220 -0.00168228149414063
000011220 000111220 1.109375
000011221 200011221 -0.109348297119141
000011221 000211221 -0.107666015625
000011221 002011221 -0.00168228149414063
000011221 020011221 -0.00168228149414063
000012000 000012100 -0.111030578613281
000012000 100012000 -0.111030578613281
000012000 000012001 -0.109348297119141
000012000 000012010 -0.109348297119141
000012000 001012000 -0.109348297119141
000012000 010012000 -0.109348297119141
000012000 000112000 -0.00168228149414063
000012001 200012001 -0.00336456298828125
000012001 000012201 -0.00168228149414063
000012001 000212001 -0.00168228149414063
000012001 002012001 -0.00168228149414063
000012001 020012001 -0.00168228149414063
000012001 000012021 0
000012010 002012010 -0.109348297119141
000012010 000012012 -0.107666015625
000012010 200012010 -0.00336456298828125
000012010 000012210 -0.00168228149414063
000012010 000212010 -0.00168228149414063
000012010 020012010 -0.00168228149414063
000012012 000012112 -0.109348297119141
000012012 001012012 -0.109348297119141
000012012 100012012 -0.00336456298828125
000012012 000112012 -0.00168228149414063
000012012 010012012 1.10769271850586
000012021 000012121 -0.109348297119141
000012021 001012021 -0.109348297119141
000012021 000112021 -0.00168228149414063
000012021 010012021 -0.00168228149414063
000012021 100012021 1.10601043701172
000012100 002012100 -0.109348297119141
000012100 000012102 -0.107666015625
000012100 020012100 -0.00168228149414063
000012100 200012100 -0.00168228149414063
000012100 000012120 0
000012100 000212100 0
000012102 010012102 -0.109348297119141
000012102 100012102 -0.109348297119141
000012102 000012112 -0.107666015625
000012102 000112102 -0.107666015625
000012102 001012102 1.10769271850586
000012112 020012112 -0.00168228149414063
000012112 200012112 -0.00168228149414063
000012112 000212112 0
000012112 002012112 1.10769271850586
000012120 100012120 -0.217014312744141
000012120 000012121 -0.107666015625
000012120 000112120 -0.107666015625
000012120 010012120 -0.00168228149414063
000012120 001012120 1.10769271850586
000012121 002012121 -0.00168228149414063
000012121 020012121 -0.00168228149414063
000012121 200012121 -0.00168228149414063
000012121 000212121 0
000012201 010012201 -0.109348297119141
000012201 000012211 -0.107666015625
000012201 001012201 -0.00168228149414063
000012201 000112201 0
000012201 100012201 1.10769271850586
000012210 100012210 -0.109348297119141
000012210 000012211 -0.107666015625
000012210 001012210 -0.00168228149414063
000012210 000112210 0
000012210 010012210 1.10769271850586
000012211 200012211 -0.109348297119141
000012211 000212211 -0.107666015625
000012211 002012211 -0.00168228149414063
000012211 020012211 -0.00168228149414063
000020001 000020101 -0.109348297119141
000020001 001020001 -0.109348297119141
000020001 000020011 -0.107666015625
000020001 000021001 -0.107666015625
000020001 100020001 -0.00336456298828125
000020001 000120001 -0.00168228149414063
000020001 010020001 -0.00168228149414063
000020010 000020011 -0.109348297119141
000020010 000020110 -0.109348297119141
000020010 001020010 -0.00336456298828125
000020010 100020010 -0.00336456298828125
000020010 000021010 -0.00168228149414063
000020010 000120010 -0.00168228149414063
000020010 010020010 -0.00168228149414063
000020011 000020211 -0.109348297119141
000020011 000220011 -0.109348297119141
000020011 002020011 -0.109348297119141
000020011 000022011 -0.107666015625
000020011 200020011 -0.00336456298828125
000020011 020020011 -0.00168228149414063
000020100 000020101 -0.109348297119141
000020100 100020100 -0.109348297119141
000020100 000020110 -0.107666015625
000020100 000120100 -0.107666015625
000020100 001020100 -0.00336456298828125
000020100 000021100 -0.00168228149414063
000020100 010020100 -0.00168228149414063
000020101 020020101 -0.109348297119141
000020101 000020121 -0.107666015625
000020101 000022101 -0.107666015625
000020101 000220101 -0.107666015625
000020101 002020101 -0.00168228149414063
000020101 200020101 -0.00168228149414063
000020110 000020112 -0.109348297119141
000020110 000022110 -0.109348297119141
000020110 200020110 -0.109348297119141
000020110 000220110 -0.107666015625
000020110 002020110 -0.00336456298828125
000020110 020020110 -0.00168228149414063
000020112 100020112 -0.109348297119141
000020112 000120112 -0.107666015625
000020112 001020112 -0.00168228149414063
000020112 010020112 -0.00168228149414063
000020112 000021112 0
000020121 001020121 -0.109348297119141
000020121 100020121 -0.109348297119141
000020121 000021121 -0.107666015625
000020121 000120121 -0.107666015625
000020121 010020121 -0.00168228149414063
000020211 001020211 -0.109348297119141
000020211 000021211 -0.107666015625
000020211 010020211 -0.00168228149414063
000020211 100020211 -0.00168228149414063
000020211 000120211 0
000021000 000021001 -0.109348297119141
000021000 001021000 -0.109348297119141
000021000 000021100 -0.00336456298828125
000021000 100021000 -0.00336456298828125
000021000 000021010 -0.00168228149414063
000021000 000121000 -0.00168228149414063
000021000 010021000 -0.00168228149414063
000021001 000021201 -0.109348297119141
000021001 002021001 -0.109348297119141
000021001 020021001 -0.109348297119141
000021001 000021021 -0.107666015625
000021001 200021001 -0.00336456298828125
000021001 000221001 -0.00168228149414063
000021010 200021010 -0.111030578613281
000021010 000021210 -0.109348297119141
000021010 002021010 -0.109348297119141
000021010 000021012 -0.107666015625
000021010 000221010 -0.00168228149414063
000021010 020021010 -0.00168228149414063
000021012 100021012 -0.00336456298828125
000021012 000021112 -0.00168228149414063
000021012 000121012 -0.00168228149414063
000021012 001021012 -0.00168228149414063
000021012 010021012 -0.00168228149414063
000021021 100021021 -0.00336456298828125
000021021 000021121 -0.00168228149414063
000021021 000121021 -0.00168228149414063
000021021 010021021 -0.00168228149414063
000021021 001021021 1.10769271850586
000021100 020021100 -0.109348297119141
000021100 200021100 -0.109348297119141
000021100 000021102 -0.107666015625
000021100 000021120 -0.107666015625
000021100 002021100 -0.00168228149414063
000021100 000221100 0
000021102 100021102 -0.109348297119141
000021102 000121102 -0.107666015625
000021102 001021102 -0.00168228149414063
000021102 010021102 -0.00168228149414063
000021102 000021112 0
000021112 002021112 -0.00168228149414063
000021112 020021112 -0.00168228149414063
000021112 000221112 0
000021112 200021112 1.10769271850586
000021120 001021120 -0.109348297119141
000021120 100021120 -0.109348297119141
000021120 000021121 -0.107666015625
000021120 000121120 -0.107666015625
000021120 010021120 -0.00168228149414063
000021121 002021121 -0.00168228149414063
000021121 200021121 -0.00168228149414063
000021121 000221121 0
000021121 020021121 1.10769271850586
000021201 010021201 -0.00168228149414063
000021201 100021201 -0.00168228149414063
000021201 000021211 0
000021201 000121201 0
000021201 001021201 1.10769271850586
000021210 001021210 -0.109348297119141
000021210 000021211 -0.107666015625
000021210 010021210 -0.00168228149414063
000021210 100021210 -0.00168228149414063
000021210 000121210 0
000021211 200021211 -0.109348297119141
000021211 000221211 -0.107666015625
000021211 020021211 -0.00168228149414063
000021211 002021211 1.10769271850586
000022011 100022011 -0.00336456298828125
000022011 000122011 -0.00168228149414063
000022011 001022011 -0.00168228149414063
000022011 010022011 -0.00168228149414063
000022011 000022111 1.10769271850586
000022101 100022101 -0.109348297119141
000022101 000122101 -0.107666015625
000022101 001022101 -0.00168228149414063
000022101 010022101 -0.00168228149414063
000022101 000022111 1.109375
000022110 100022110 -0.109348297119141
000022110 000122110 -0.107666015625
000022110 001022110 -0.00168228149414063
000022110 010022110 -0.00168228149414063
000022110 000022111 1.109375
000100000 000100002 -0.00504684448242188
000100000 000120000 -0.00504684448242188
000100000 002100000 -0.00504684448242188
000100000 000100020 -0.00336456298828125
000100000 000100200 -0.00336456298828125
000100000 020100000 -0.00336456298828125
000100000 200100000 -0.00336456298828125
000100000 000102000 -0.00168228149414063
000100002 000110002 -0.111030578613281
000100002 000100102 -0.109348297119141
000100002 100100002 -0.109348297119141
000100002 000101002 -0.107666015625
000100002 001100002 -0.00336456298828125
000100002 010100002 -0.00336456298828125
000100002 000100012 -0.00168228149414063
000100012 002100012 -0.111030578613281
000100012 000120012 -0.109348297119141
000100012 200100012 -0.109348297119141
000100012 000102012 -0.107666015625
000100012 000100212 -0.00168228149414063
000100012 020100012 -0.00168228149414063
000100020 000110020 -0.111030578613281
000100020 100100020 -0.111030578613281
000100020 000100120 -0.109348297119141
000100020 000101020 -0.109348297119141
000100020 001100020 -0.00504684448242188
000100020 000100021 -0.00336456298828125
000100020 010100020 -0.00168228149414063
000100021 000120021 -0.109348297119141
000100021 020100021 -0.109348297119141
000100021 002100021 -0.00336456298828125
000100021 000100221 -0.00168228149414063
000100021 200100021 -0.00168228149414063
000100021 000102021 0
000100102 000120102 -0.109348297119141
000100102 002100102 -0.109348297119141
000100102 200100102 -0.109348297119141
000100102 000102102 -0.107666015625
000100102 020100102 -0.00336456298828125
000100102 000100122 -0.00168228149414063
000100120 000120120 -0.109348297119141
000100120 020100120 -0.109348297119141
000100120 000100122 -0.00336456298828125
000100120 002100120 -0.00336456298828125
000100120 200100120 -0.00336456298828125
000100120 000102120 -0.00168228149414063
000100122 000110122 -0.21533203125
000100122 001100122 -0.109348297119141
000100122 000101122 -0.107666015625
000100122 010100122 -0.00168228149414063
000100122 100100122 1.10769271850586
000100200 000110200 -0.111030578613281
000100200 000101200 -0.109348297119141
000100200 000100201 -0.00336456298828125
000100200 001100200 -0.00336456298828125
000100200 010100200 -0.00336456298828125
000100200 100100200 -0.00336456298828125
000100200 000100210 -0.00168228149414063
000100201 000120201 -0.109348297119141
000100201 002100201 -0.109348297119141
000100201 020100201 -0.00336456298828125
000100201 000100221 -0.00168228149414063
000100201 200100201 -0.00168228149414063
000100201 000102201 0
000100210 002100210 -0.111030578613281
000100210 000120210 -0.109348297119141
000100210 000100212 -0.00336456298828125
000100210 200100210 -0.00336456298828125
000100210 000102210 -0.00168228149414063
000100210 020100210 -0.00168228149414063
000100212 000110212 -0.21533203125
000100212 010100212 -0.109348297119141
000100212 000101212 -0.107666015625
000100212 001100212 -0.00168228149414063
000100212 100100212 -0.00168228149414063
000100221 000101221 -0.21533203125
000100221 000110221 -0.21533203125
000100221 001100221 -0.109348297119141
000100221 100100221 -0.109348297119141
000100221 010100221 -0.00168228149414063
000101002 000121002 -0.111030578613281
000101002 000101022 -0.109348297119141
000101002 000101202 -0.109348297119141
000101002 200101002 -0.109348297119141
000101002 002101002 -0.00336456298828125
000101002 020101002 -0.00336456298828125
000101020 000121020 -0.111030578613281
000101020 000101022 -0.109348297119141
000101020 000101220 -0.109348297119141
000101020 020101020 -0.109348297119141
000101020 002101020 -0.00336456298828125
000101020 200101020 -0.00336456298828125
000101022 000101122 -0.109348297119141
000101022 100101022 -0.109348297119141
000101022 001101022 -0.00336456298828125
000101022 010101022 -0.00168228149414063
000101022 000111022 1.10769271850586
000101122 000121122 -0.21533203125
000101122 020101122 -0.109348297119141
000101122 200101122 -0.109348297119141
000101122 002101122 -0.00168228149414063
000101200 000121200 -0.111030578613281
000101200 000101202 -0.109348297119141
000101200 000101220 -0.109348297119141
000101200 002101200 -0.109348297119141
000101200 020101200 -0.00336456298828125
000101200 200101200 -0.00336456298828125
000101202 010101202 -0.00336456298828125
000101202 000101212 -0.00168228149414063
000101202 001101202 -0.00168228149414063
000101202 100101202 -0.00168228149414063
000101202 000111202 1.10769271850586
000101212 000121212 -0.21533203125
000101212 002101212 -0.109348297119141
000101212 200101212 -0.109348297119141
000101212 020101212 -0.00168228149414063
000101220 000101221 -0.109348297119141
000101220 001101220 -0.109348297119141
000101220 100101220 -0.00336456298828125
000101220 010101220 -0.00168228149414063
000101220 000111220 1.10769271850586
000101221 000121221 -0.21533203125
000101221 002101221 -0.109348297119141
000101221 020101221 -0.109348297119141
000101221 200101221 -0.00168228149414063
000102000 000102100 -0.111030578613281
000102000 100102000 -0.111030578613281
000102000 000112000 -0.00504684448242188
000102000 000102001 -0.00336456298828125
000102000 000102010 -0.00336456298828125
000102000 001102000 -0.00336456298828125
000102000 010102000 -0.00336456298828125
000102001 000122001 -0.00336456298828125
000102001 002102001 -0.00336456298828125
000102001 020102001 -0.00336456298828125
000102001 000102021 -0.00168228149414063
000102001 000102201 -0.00168228149414063
000102001 200102001 -0.00168228149414063
000102010 002102010 -0.111030578613281
000102010 000102012 -0.109348297119141
000102010 000122010 -0.00336456298828125
000102010 200102010 -0.00336456298828125
000102010 000102210 -0.00168228149414063
000102010 020102010 -0.00168228149414063
000102012 000102112 -0.109348297119141
000102012 000112012 -0.109348297119141
000102012 010102012 -0.109348297119141
000102012 100102012 -0.109348297119141
000102012 001102012 -0.00336456298828125
000102021 100102021 -0.217014312744141
000102021 000102121 -0.109348297119141
000102021 000112021 -0.109348297119141
000102021 001102021 -0.00336456298828125
000102021 010102021 -0.00168228149414063
000102100 000102102 -0.109348297119141
000102100 002102100 -0.109348297119141
000102100 000122100 -0.00336456298828125
000102100 020102100 -0.00336456298828125
000102100 200102100 -0.00336456298828125
000102100 000102120 -0.00168228149414063
000102102 000112102 -0.109348297119141
000102102 001102102 -0.109348297119141
000102102 010102102 -0.00336456298828125
000102102 000102112 -0.00168228149414063
000102102 100102102 1.10769271850586
000102112 200102112 -0.109348297119141
000102112 000122112 -0.107666015625
000102112 020102112 -0.00168228149414063
000102112 002102112 1.10769271850586
000102120 000112120 -0.109348297119141
000102120 001102120 -0.109348297119141
000102120 000102121 -0.00168228149414063
000102120 010102120 -0.00168228149414063
000102120 100102120 1.10601043701172
000102121 020102121 -0.109348297119141
000102121 000122121 -0.107666015625
000102121 002102121 -0.00168228149414063
000102121 200102121 -0.00168228149414063
000102201 000112201 -0.109348297119141
000102201 100102201 -0.109348297119141
000102201 010102201 -0.00336456298828125
000102201 000102211 -0.00168228149414063
000102201 001102201 -0.00168228149414063
000102210 000112210 -0.109348297119141
000102210 010102210 -0.109348297119141
000102210 100102210 -0.00336456298828125
000102210 000102211 -0.00168228149414063
000102210 001102210 -0.00168228149414063
000102211 002102211 -0.109348297119141
000102211 000122211 -0.107666015625
000102211 020102211 -0.00168228149414063
000102211 200102211 -0.00168228149414063
000110002 002110002 -0.109348297119141
000110002 000110022 -0.107666015625
000110002 000110202 -0.107666015625
000110002 000112002 -0.107666015625
000110002 020110002 -0.00168228149414063
000110002 200110002 -0.00168228149414063
000110020 000110022 -0.109348297119141
000110020 000110220 -0.107666015625
000110020 002110020 -0.00336456298828125
000110020 000112020 -0.00168228149414063
000110020 020110020 -0.00168228149414063
000110020 200110020 -0.00168228149414063
000110022 000110122 -0.21533203125
000110022 001110022 -0.109348297119141
000110022 100110022 -0.109348297119141
000110022 010110022 -0.00168228149414063
000110022 000111022 1.109375
000110122 002110122 -0.109348297119141
000110122 000112122 -0.107666015625
000110122 020110122 -0.00168228149414063
000110122 200110122 -0.00168228149414063
000110200 000110202 -0.109348297119141
000110200 000110220 -0.107666015625
000110200 002110200 -0.00336456298828125
000110200 000112200 -0.00168228149414063
000110200 020110200 -0.00168228149414063
000110200 200110200 -0.00168228149414063
000110202 010110202 -0.109348297119141
000110202 000110212 -0.107666015625
000110202 001110202 -0.00168228149414063
000110202 100110202 -0.00168228149414063
000110202 000111202 1.109375
000110212 002110212 -0.109348297119141
000110212 000112212 -0.107666015625
000110212 020110212 -0.00168228149414063
000110212 200110212 -0.00168228149414063
000110220 000110221 -0.109348297119141
000110220 100110220 -0.109348297119141
000110220 001110220 -0.00336456298828125
000110220 010110220 -0.00168228149414063
000110220 000111220 1.10769271850586
000110221 002110221 -0.00168228149414063
000110221 020110221 -0.00168228149414063
000110221 200110221 -0.00168228149414063
000110221 000112221 0
000112000 000112002 -0.109348297119141
000112000 002112000 -0.109348297119141
000112000 000112020 -0.00168228149414063
000112000 000112200 -0.00168228149414063
000112000 020112000 -0.00168228149414063
000112000 200112000 -0.00168228149414063
000112002 000112102 -0.21533203125
000112002 001112002 -0.109348297119141
000112002 010112002 -0.109348297119141
000112002 100112002 -0.109348297119141
000112002 000112012 -0.107666015625
000112012 020112012 -0.00168228149414063
000112012 200112012 -0.00168228149414063
000112012 000112212 0
000112012 002112012 1.10769271850586
000112020 100112020 -0.217014312744141
000112020 000112120 -0.21533203125
000112020 001112020 -0.109348297119141
000112020 000112021 -0.107666015625
000112020 010112020 -0.00168228149414063
000112021 002112021 -0.00168228149414063
000112021 020112021 -0.00168228149414063
000112021 200112021 -0.00168228149414063
000112021 000112221 0
000112102 020112102 -0.00168228149414063
000112102 200112102 -0.00168228149414063
000112102 000112122 0
000112102 002112102 1.10769271850586
000112120 002112120 -0.109348297119141
000112120 000112122 -0.107666015625
000112120 020112120 -0.00168228149414063
000112120 200112120 -0.00168228149414063
000112122 010112122 -0.00168228149414063
000112122 001112122 1.10769271850586
000112122 100112122 1.10769271850586
000112200 010112200 -0.109348297119141
000112200 100112200 -0.109348297119141
000112200 000112201 -0.107666015625
000112200 000112210 -0.107666015625
000112200 001112200 -0.00168228149414063
000112201 002112201 -0.00168228149414063
000112201 020112201 -0.00168228149414063
000112201 200112201 -0.00168228149414063
000112201 000112221 0
000112210 002112210 -0.109348297119141
000112210 000112212 -0.107666015625
000112210 020112210 -0.00168228149414063
000112210 200112210 -0.00168228149414063
000112212 001112212 -0.00168228149414063
000112212 100112212 -0.00168228149414063
000112212 010112212 1.10769271850586
000112221 001112221 -0.00168228149414063
000112221 010112221 -0.00168228149414063
000112221 100112221 1.10769271850586
000120000 000120100 -0.109348297119141
000120000 100120000 -0.109348297119141
000120000 000120001 -0.00336456298828125
000120000 001120000 -0.00336456298828125
000120000 000120010 -0.00168228149414063
000120000 000121000 -0.00168228149414063
000120000 010120000 -0.00168228149414063
000120001 002120001 -0.109348297119141
000120001 020120001 -0.109348297119141
000120001 000120021 -0.107666015625
000120001 000120201 -0.107666015625
000120001 200120001 -0.00168228149414063
000120001 000122001 0
000120010 002120010 -0.111030578613281
000120010 000120012 -0.109348297119141
000120010 200120010 -0.109348297119141
000120010 000120210 -0.107666015625
000120010 000122010 -0.00168228149414063
000120010 020120010 -0.00168228149414063
000120012 100120012 -0.109348297119141
000120012 000120112 -0.107666015625
000120012 001120012 -0.00168228149414063
000120012 010120012 -0.00168228149414063
000120012 000121012 0
000120021 001120021 -0.109348297119141
000120021 100120021 -0.109348297119141
000120021 000120121 -0.107666015625
000120021 000121021 -0.107666015625
000120021 010120021 -0.00168228149414063
000120100 000120102 -0.109348297119141
000120100 020120100 -0.109348297119141
000120100 200120100 -0.109348297119141
000120100 000120120 -0.107666015625
000120100 002120100 -0.00336456298828125
000120100 000122100 -0.00168228149414063
000120102 001120102 -0.00168228149414063
000120102 010120102 -0.00168228149414063
000120102 000120112 0
000120102 000121102 0
000120102 100120102 1.10769271850586
000120112 002120112 -0.109348297119141
000120112 000122112 -0.107666015625
000120112 020120112 -0.00168228149414063
000120112 200120112 1.10769271850586
000120120 001120120 -0.00336456298828125
000120120 000120121 -0.00168228149414063
000120120 000121120 -0.00168228149414063
000120120 010120120 -0.00168228149414063
000120120 100120120 1.10769271850586
000120121 002120121 -0.00168228149414063
000120121 200120121 -0.00168228149414063
000120121 000122121 0
000120121 020120121 1.10769271850586
000120201 001120201 -0.109348297119141
000120201 000121201 -0.107666015625
000120201 010120201 -0.00168228149414063
000120201 100120201 -0.00168228149414063
000120201 000120211 0
000120210 001120210 -0.00336456298828125
000120210 000120211 -0.00168228149414063
000120210 000121210 -0.00168228149414063
000120210 010120210 -0.00168228149414063
000120210 100120210 -0.00168228149414063
000120211 020120211 -0.00168228149414063
000120211 200120211 -0.00168228149414063
000120211 000122211 0
000120211 002120211 1.10769271850586
000121000 000121002 -0.109348297119141
000121000 000121020 -0.109348297119141
000121000 000121200 -0.109348297119141
000121000 002121000 -0.109348297119141
000121000 020121000 -0.109348297119141
000121000 200121000 -0.109348297119141
000121002 100121002 -0.109348297119141
000121002 000121102 -0.107666015625
000121002 001121002 -0.00168228149414063
000121002 010121002 -0.00168228149414063
000121002 000121012 0
000121012 002121012 -0.109348297119141
000121012 000121212 -0.107666015625
000121012 020121012 -0.00168228149414063
000121012 200121012 1.10769271850586
000121020 001121020 -0.109348297119141
000121020 100121020 -0.109348297119141
000121020 000121021 -0.107666015625
000121020 000121120 -0.107666015625
000121020 010121020 -0.00168228149414063
000121021 002121021 -0.109348297119141
000121021 000121221 -0.107666015625
000121021 200121021 -0.00168228149414063
000121021 020121021 1.10769271850586
000121102 020121102 -0.109348297119141
000121102 000121122 -0.107666015625
000121102 002121102 -0.00168228149414063
000121102 200121102 1.10769271850586
000121120 200121120 -0.109348297119141
000121120 000121122 -0.107666015625
000121120 002121120 -0.00168228149414063
000121120 020121120 1.10769271850586
000121122 001121122 -0.00168228149414063
000121122 010121122 -0.00168228149414063
000121122 100121122 1.10769271850586
000121200 001121200 -0.109348297119141
000121200 000121201 -0.107666015625
000121200 010121200 -0.00168228149414063
000121200 100121200 -0.00168228149414063
000121200 000121210 0
000121201 020121201 -0.109348297119141
000121201 000121221 -0.107666015625
000121201 200121201 -0.00168228149414063
000121201 002121201 1.10769271850586
000121210 200121210 -0.109348297119141
000121210 000121212 -0.107666015625
000121210 020121210 -0.00168228149414063
000121210 002121210 1.10769271850586
000121212 001121212 -0.00168228149414063
000121212 010121212 -0.00168228149414063
000121212 100121212 -0.00168228149414063
000121221 010121221 -0.00168228149414063
000121221 100121221 -0.00168228149414063
000121221 001121221 1.10769271850586
000122001 000122101 -0.21533203125
000122001 100122001 -0.109348297119141
000122001 000122011 -0.107666015625
000122001 001122001 -0.00168228149414063
000122001 010122001 -0.00168228149414063
000122010 000122110 -0.21533203125
000122010 100122010 -0.109348297119141
000122010 000122011 -0.107666015625
000122010 001122010 -0.00168228149414063
000122010 010122010 -0.00168228149414063
000122011 002122011 -0.109348297119141
000122011 000122211 -0.107666015625
000122011 020122011 -0.00168228149414063
000122011 200122011 -0.00168228149414063
000122100 000122101 -0.107666015625
000122100 000122110 -0.107666015625
000122100 001122100 -0.00168228149414063
000122100 010122100 -0.00168228149414063
000122100 100122100 1.10769271850586
000122101 020122101 -0.109348297119141
000122101 000122121 -0.107666015625
000122101 002122101 -0.00168228149414063
000122101 200122101 -0.00168228149414063
000122110 000122112 -0.21533203125
000122110 002122110 -0.109348297119141
000122110 200122110 -0.109348297119141
000122110 020122110 -0.00168228149414063
000122112 001122112 -0.00168228149414063
000122112 010122112 -0.00168228149414063
000122112 100122112 1.10769271850586
000122121 001122121 -0.00168228149414063
000122121 010122121 -0.00168228149414063
000122121 100122121 1.10769271850586
000122211 001122211 -0.00168228149414063
000122211 010122211 -0.00168228149414063
000122211 100122211 -0.00168228149414063
000200001 000210001 -0.111030578613281
000200001 001200001 -0.111030578613281
000200001 000200011 -0.109348297119141
000200001 000200101 -0.109348297119141
000200001 100200001 -0.109348297119141
000200001 000201001 -0.107666015625
000200001 010200001 -0.00336456298828125
000200010 000200011 -0.111030578613281
000200010 000210010 -0.111030578613281
000200010 000200110 -0.109348297119141
000200010 010200010 -0.109348297119141
000200010 001200010 -0.00504684448242188
000200010 100200010 -0.00336456298828125
000200010 000201010 -0.00168228149414063
000200011 000200211 -0.109348297119141
000200011 000220011 -0.109348297119141
000200011 200200011 -0.109348297119141
000200011 000202011 -0.107666015625
000200011 002200011 -0.00336456298828125
000200011 020200011 -0.00168228149414063
000200100 000200101 -0.111030578613281
000200100 000210100 -0.111030578613281
000200100 001200100 -0.111030578613281
000200100 000200110 -0.109348297119141
000200100 010200100 -0.00336456298828125
000200100 100200100 -0.00336456298828125
000200100 000201100 -0.00168228149414063
000200101 000220101 -0.109348297119141
000200101 000202101 -0.107666015625
000200101 020200101 -0.00336456298828125
000200101 000200121 -0.00168228149414063
000200101 002200101 -0.00168228149414063
000200101 200200101 -0.00168228149414063
000200110 000202110 -0.109348297119141
000200110 000220110 -0.109348297119141
000200110 000200112 -0.00336456298828125
000200110 002200110 -0.00336456298828125
000200110 200200110 -0.00336456298828125
000200110 020200110 -0.00168228149414063
000200112 000210112 -0.21533203125
000200112 001200112 -0.109348297119141
000200112 010200112 -0.109348297119141
000200112 100200112 -0.00168228149414063
000200112 000201112 0
000200121 001200121 -0.217014312744141
000200121 000210121 -0.21533203125
000200121 100200121 -0.109348297119141
000200121 000201121 -0.107666015625
000200121 010200121 -0.00168228149414063
000200211 000210211 -0.21533203125
000200211 001200211 -0.109348297119141
000200211 010200211 -0.109348297119141
000200211 100200211 -0.109348297119141
000200211 000201211 -0.107666015625
000201000 000201001 -0.111030578613281
000201000 001201000 -0.111030578613281
000201000 000211000 -0.00504684448242188
000201000 000201010 -0.00336456298828125
000201000 000201100 -0.00336456298828125
000201000 010201000 -0.00336456298828125
000201000 100201000 -0.00336456298828125
000201001 000201201 -0.109348297119141
000201001 200201001 -0.109348297119141
000201001 000221001 -0.00336456298828125
000201001 002201001 -0.00336456298828125
000201001 020201001 -0.00336456298828125
000201001 000201021 -0.00168228149414063
000201010 200201010 -0.111030578613281
000201010 000201210 -0.109348297119141
000201010 000221010 -0.00336456298828125
000201010 002201010 -0.00336456298828125
000201010 000201012 -0.00168228149414063
000201010 020201010 -0.00168228149414063
000201012 000211012 -0.109348297119141
000201012 010201012 -0.109348297119141
000201012 001201012 -0.00336456298828125
000201012 000201112 -0.00168228149414063
000201012 100201012 -0.00168228149414063
000201021 000211021 -0.109348297119141
000201021 100201021 -0.109348297119141
000201021 000201121 -0.00168228149414063
000201021 010201021 -0.00168228149414063
000201021 001201021 1.10601043701172
000201100 000221100 -0.00336456298828125
000201100 020201100 -0.00336456298828125
000201100 200201100 -0.00336456298828125
000201100 000201102 -0.00168228149414063
000201100 000201120 -0.00168228149414063
000201100 002201100 -0.00168228149414063
000201102 000211102 -0.109348297119141
000201102 001201102 -0.109348297119141
000201102 010201102 -0.00336456298828125
000201102 000201112 -0.00168228149414063
000201102 100201102 -0.00168228149414063
000201112 200201112 -0.109348297119141
000201112 000221112 -0.107666015625
000201112 002201112 -0.00168228149414063
000201112 020201112 -0.00168228149414063
000201120 001201120 -0.217014312744141
000201120 000201121 -0.109348297119141
000201120 000211120 -0.109348297119141
000201120 100201120 -0.00336456298828125
000201120 010201120 -0.00168228149414063
000201121 020201121 -0.109348297119141
000201121 000221121 -0.107666015625
000201121 002201121 -0.00168228149414063
000201121 200201121 -0.00168228149414063
000201201 000211201 -0.109348297119141
000201201 100201201 -0.109348297119141
000201201 010201201 -0.00336456298828125
000201201 000201211 -0.00168228149414063
000201201 001201201 1.10769271850586
000201210 000201211 -0.109348297119141
000201210 000211210 -0.109348297119141
000201210 001201210 -0.109348297119141
000201210 010201210 -0.109348297119141
000201210 100201210 -0.00336456298828125
000201211 002201211 -0.109348297119141
000201211 000221211 -0.107666015625
000201211 020201211 -0.00168228149414063
000201211 200201211 1.10769271850586
000202011 000212011 -0.217014312744141
000202011 010202011 -0.109348297119141
000202011 100202011 -0.109348297119141
000202011 001202011 -0.00336456298828125
000202011 000202111 1.10769271850586
000202101 000212101 -0.217014312744141
000202101 001202101 -0.109348297119141
000202101 100202101 -0.109348297119141
000202101 010202101 -0.00336456298828125
000202101 000202111 1.10769271850586
000202110 000212110 -0.217014312744141
000202110 001202110 -0.109348297119141
000202110 010202110 -0.109348297119141
000202110 100202110 -0.00336456298828125
000202110 000202111 1.10769271850586
000210000 000210001 -0.111030578613281
000210000 001210000 -0.111030578613281
000210000 000210010 -0.109348297119141
000210000 000210100 -0.109348297119141
000210000 010210000 -0.109348297119141
000210000 100210000 -0.109348297119141
000210000 000211000 -0.00168228149414063
000210001 200210001 -0.109348297119141
000210001 000210201 -0.107666015625
000210001 002210001 -0.00168228149414063
000210001 020210001 -0.00168228149414063
000210001 000210021 0
000210001 000212001 0
000210010 200210010 -0.109348297119141
000210010 000210210 -0.107666015625
000210010 002210010 -0.00336456298828125
000210010 000210012 -0.00168228149414063
000210010 000212010 -0.00168228149414063
000210010 020210010 -0.00168228149414063
000210012 001210012 -0.109348297119141
000210012 000210112 -0.107666015625
000210012 100210012 -0.00168228149414063
000210012 000211012 0
000210012 010210012 1.10769271850586
000210021 001210021 -0.217014312744141
000210021 000210121 -0.107666015625
000210021 000211021 -0.107666015625
000210021 010210021 -0.00168228149414063
000210021 100210021 1.10769271850586
000210100 002210100 -0.00336456298828125
000210100 000210102 -0.00168228149414063
000210100 000212100 -0.00168228149414063
000210100 020210100 -0.00168228149414063
000210100 200210100 -0.00168228149414063
000210100 000210120 0
000210102 010210102 -0.109348297119141
000210102 000210112 -0.107666015625
000210102 100210102 -0.00168228149414063
000210102 000211102 0
000210102 001210102 1.10769271850586
000210112 002210112 -0.109348297119141
000210112 000212112 -0.107666015625
000210112 020210112 -0.00168228149414063
000210112 200210112 -0.00168228149414063
000210120 000210121 -0.109348297119141
000210120 100210120 -0.109348297119141
000210120 000211120 -0.00168228149414063
000210120 010210120 -0.00168228149414063
000210120 001210120 1.10601043701172
000210121 002210121 -0.00168228149414063
000210121 020210121 -0.00168228149414063
000210121 200210121 -0.00168228149414063
000210121 000212121 0
000210201 001210201 -0.109348297119141
000210201 010210201 -0.109348297119141
000210201 000210211 -0.107666015625
000210201 000211201 -0.107666015625
000210201 100210201 1.10769271850586
000210210 000210211 -0.109348297119141
000210210 100210210 -0.109348297119141
000210210 001210210 -0.00336456298828125
000210210 000211210 -0.00168228149414063
000210210 010210210 1.10769271850586
000210211 002210211 -0.00168228149414063
000210211 020210211 -0.00168228149414063
000210211 000212211 0
000210211 200210211 1.10769271850586
000211000 000211200 -0.109348297119141
000211000 200211000 -0.109348297119141
000211000 000211002 -0.00168228149414063
000211000 000211020 -0.00168228149414063
000211000 002211000 -0.00168228149414063
000211000 020211000 -0.00168228149414063
000211002 001211002 -0.109348297119141
000211002 010211002 -0.109348297119141
000211002 000211012 -0.107666015625
000211002 000211102 -0.107666015625
000211002 100211002 -0.00168228149414063
000211012 200211012 -0.109348297119141
000211012 000211212 -0.107666015625
000211012 002211012 -0.00168228149414063
000211012 020211012 -0.00168228149414063
000211020 001211020 -0.217014312744141
000211020 000211021 -0.21533203125
000211020 100211020 -0.109348297119141
000211020 000211120 -0.107666015625
000211020 010211020 -0.00168228149414063
000211021 200211021 -0.109348297119141
000211021 000211221 -0.107666015625
000211021 002211021 -0.00168228149414063
000211021 020211021 -0.00168228149414063
000211102 002211102 -0.00168228149414063
000211102 020211102 -0.00168228149414063
000211102 200211102 -0.00168228149414063
000211102 000211122 0
000211120 002211120 -0.00168228149414063
000211120 020211120 -0.00168228149414063
000211120 200211120 -0.00168228149414063
000211120 000211122 0
000211122 010211122 -0.00168228149414063
000211122 100211122 -0.00168228149414063
000211122 001211122 1.10769271850586
000211200 000211201 -0.21533203125
000211200 001211200 -0.109348297119141
000211200 010211200 -0.109348297119141
000211200 100211200 -0.109348297119141
000211200 000211210 -0.107666015625
000211201 002211201 -0.00168228149414063
000211201 020211201 -0.00168228149414063
000211201 000211221 0
000211201 200211201 1.10769271850586
000211210 002211210 -0.00168228149414063
000211210 020211210 -0.00168228149414063
000211210 000211212 0
000211210 200211210 1.10769271850586
000211212 001211212 -0.00168228149414063
000211212 100211212 -0.00168228149414063
000211212 010211212 1.10769271850586
000211221 010211221 -0.00168228149414063
000211221 001211221 1.10769271850586
000211221 100211221 1.10769271850586
000212001 000212011 -0.21533203125
000212001 000212101 -0.21533203125
000212001 001212001 -0.109348297119141
000212001 010212001 -0.109348297119141
000212001 100212001 1.10769271850586
000212010 000212011 -0.21533203125
000212010 000212110 -0.21533203125
000212010 001212010 -0.109348297119141
000212010 100212010 -0.109348297119141
000212010 010212010 1.10769271850586
000212011 200212011 -0.109348297119141
000212011 000212211 -0.107666015625
000212011 002212011 -0.00168228149414063
000212011 020212011 -0.00168228149414063
000212100 000212101 -0.21533203125
000212100 000212110 -0.21533203125
000212100 010212100 -0.109348297119141
000212100 100212100 -0.109348297119141
000212100 001212100 1.10769271850586
000212101 002212101 -0.00168228149414063
000212101 020212101 -0.00168228149414063
000212101 200212101 -0.00168228149414063
000212101 000212121 0
000212110 002212110 -0.109348297119141
000212110 000212112 -0.107666015625
000212110 020212110 -0.00168228149414063
000212110 200212110 -0.00168228149414063
000212112 100212112 -0.00168228149414063
000212112 001212112 1.10769271850586
000212112 010212112 1.10769271850586
000212121 010212121 -0.00168228149414063
000212121 001212121 1.10769271850586
000212121 100212121 1.10769271850586
000212211 001212211 -0.00168228149414063
000212211 010212211 1.10769271850586
000212211 100212211 1.10769271850586
000220011 001220011 -0.109348297119141
000220011 000221011 -0.107666015625
000220011 010220011 -0.00168228149414063
000220011 100220011 -0.00168228149414063
000220011 000220111 1.109375
000220101 001220101 -0.109348297119141
000220101 000221101 -0.107666015625
000220101 010220101 -0.00168228149414063
000220101 100220101 -0.00168228149414063
000220101 000220111 1.109375
000220110 001220110 -0.00336456298828125
000220110 000221110 -0.00168228149414063
000220110 010220110 -0.00168228149414063
000220110 100220110 -0.00168228149414063
000220110 000220111 1.10769271850586
000221001 000221011 -0.107666015625
000221001 000221101 -0.107666015625
000221001 010221001 -0.00168228149414063
000221001 100221001 -0.00168228149414063
000221001 001221001 1.10769271850586
000221010 000221011 -0.21533203125
000221010 001221010 -0.109348297119141
000221010 000221110 -0.107666015625
000221010 010221010 -0.00168228149414063
000221010 100221010 -0.00168228149414063
000221011 000221211 -0.21533203125
000221011 002221011 -0.109348297119141
000221011 200221011 -0.109348297119141
000221011 020221011 -0.00168228149414063
000221100 000221101 -0.21533203125
000221100 001221100 -0.109348297119141
000221100 000221110 -0.107666015625
000221100 010221100 -0.00168228149414063
000221100 100221100 -0.00168228149414063
000221101 020221101 -0.109348297119141
000221101 000221121 -0.107666015625
000221101 002221101 -0.00168228149414063
000221101 200221101 -0.00168228149414063
000221110 200221110 -0.109348297119141
000221110 000221112 -0.107666015625
000221110 002221110 -0.00168228149414063
000221110 020221110 -0.00168228149414063
000221112 001221112 -0.00168228149414063
000221112 010221112 -0.00168228149414063
000221112 100221112 -0.00168228149414063
000221121 010221121 -0.00168228149414063
000221121 100221121 -0.00168228149414063
000221121 001221121 1.10769271850586
000221211 010221211 -0.00168228149414063
000221211 100221211 -0.00168228149414063
000221211 001221211 1.10769271850586
001000000 001020000 -0.00504684448242188
001000000 001000002 -0.00336456298828125
001000000 001000020 -0.00336456298828125
001000000 001000200 -0.00336456298828125
001000000 001200000 -0.00336456298828125
001000000 201000000 -0.00336456298828125
001000000 001002000 -0.00168228149414063
001000000 021000000 -0.00168228149414063
001000002 001010002 -0.111030578613281
001000002 001000102 -0.109348297119141
001000002 011000002 -0.109348297119141
001000002 101000002 -0.109348297119141
001000002 001100002 -0.00336456298828125
001000002 001000012 -0.00168228149414063
001000002 001001002 -0.00168228149414063
001000012 001020012 -0.109348297119141
001000012 201000012 -0.109348297119141
001000012 001200012 -0.00336456298828125
001000012 001000212 -0.00168228149414063
001000012 001002012 -0.00168228149414063
001000012 021000012 0
001000020 001010020 -0.111030578613281
001000020 101000020 -0.111030578613281
001000020 001000021 -0.109348297119141
001000020 001000120 -0.109348297119141
001000020 001001020 -0.109348297119141
001000020 011000020 -0.107666015625
001000020 001100020 -0.00336456298828125
001000021 001020021 -0.109348297119141
001000021 021000021 -0.107666015625
001000021 001200021 -0.00336456298828125
001000021 001000221 -0.00168228149414063
001000021 001002021 -0.00168228149414063
001000021 201000021 -0.00168228149414063
001000102 001020102 -0.111030578613281
001000102 201000102 -0.107666015625
001000102 001000122 -0.00168228149414063
001000102 001002102 -0.00168228149414063
001000102 001200102 -0.00168228149414063
001000102 021000102 -0.00168228149414063
001000120 001020120 -0.111030578613281
001000120 021000120 -0.107666015625
001000120 001000122 -0.00168228149414063
001000120 001002120 -0.00168228149414063
001000120 001200120 -0.00168228149414063
001000120 201000120 -0.00168228149414063
001000122 101000122 -0.21533203125
001000122 001100122 -0.109348297119141
001000122 011000122 -0.107666015625
001000122 001001122 -0.00168228149414063
001000122 001010122 1.10769271850586
001000200 001000201 -0.109348297119141
001000200 001001200 -0.109348297119141
001000200 011000200 -0.109348297119141
001000200 101000200 -0.109348297119141
001000200 001010200 -0.00504684448242188
001000200 001000210 -0.00168228149414063
001000200 001100200 -0.00168228149414063
001000201 001200201 -0.109348297119141
001000201 201000201 -0.107666015625
001000201 001020201 -0.00336456298828125
001000201 001000221 -0.00168228149414063
001000201 001002201 -0.00168228149414063
001000201 021000201 -0.00168228149414063
001000210 001200210 -0.109348297119141
001000210 201000210 -0.109348297119141
001000210 001020210 -0.00336456298828125
001000210 001000212 -0.00168228149414063
001000210 001002210 -0.00168228149414063
001000210 021000210 0
001000212 011000212 -0.21533203125
001000212 001010212 -0.109348297119141
001000212 101000212 -0.107666015625
001000212 001001212 -0.00168228149414063
001000212 001100212 -0.00168228149414063
001000221 101000221 -0.21533203125
001000221 001010221 -0.109348297119141
001000221 011000221 -0.107666015625
001000221 001100221 -0.00168228149414063
001000221 001001221 1.10769271850586
001001002 001001022 -0.109348297119141
001001002 001001202 -0.109348297119141
001001002 001021002 -0.109348297119141
001001002 201001002 -0.109348297119141
001001002 001201002 -0.00168228149414063
001001002 021001002 -0.00168228149414063
001001020 001001022 -0.109348297119141
001001020 001001220 -0.109348297119141
001001020 001021020 -0.109348297119141
001001020 021001020 -0.107666015625
001001020 201001020 -0.00336456298828125
001001020 001201020 -0.00168228149414063
001001022 001011022 -0.21533203125
001001022 001001122 -0.109348297119141
001001022 001101022 -0.109348297119141
001001022 101001022 -0.109348297119141
001001022 011001022 -0.107666015625
001001122 001021122 -0.21533203125
001001122 021001122 -0.107666015625
001001122 201001122 -0.107666015625
001001122 001201122 0
001001200 001001202 -0.109348297119141
001001200 001001220 -0.109348297119141
001001200 201001200 -0.109348297119141
001001200 001201200 -0.107666015625
001001200 001021200 -0.00336456298828125
001001200 021001200 -0.00168228149414063
001001202 001011202 -0.109348297119141
001001202 011001202 -0.109348297119141
001001202 001101202 -0.107666015625
001001202 101001202 -0.107666015625
001001202 001001212 -0.00168228149414063
001001212 201001212 -0.21533203125
001001212 001021212 -0.107666015625
001001212 001201212 -0.107666015625
001001212 021001212 0
001001220 001011220 -0.109348297119141
001001220 101001220 -0.109348297119141
001001220 001101220 -0.107666015625
001001220 011001220 -0.107666015625
001001220 001001221 1.10769271850586
001002000 001002100 -0.111030578613281
001002000 001012000 -0.111030578613281
001002000 101002000 -0.111030578613281
001002000 011002000 -0.109348297119141
001002000 001002001 -0.00336456298828125
001002000 001002010 -0.00336456298828125
001002000 001102000 -0.00168228149414063
001002001 001022001 -0.109348297119141
001002001 001202001 -0.109348297119141
001002001 001002021 -0.00168228149414063
001002001 001002201 -0.00168228149414063
001002001 021002001 -0.00168228149414063
001002001 201002001 -0.00168228149414063
001002010 001022010 -0.109348297119141
001002010 001202010 -0.109348297119141
001002010 201002010 -0.00336456298828125
001002010 001002012 -0.00168228149414063
001002010 001002210 -0.00168228149414063
001002010 021002010 0
001002012 001012012 -0.21533203125
001002012 011002012 -0.21533203125
001002012 001002112 -0.109348297119141
001002012 101002012 -0.109348297119141
001002012 001102012 -0.00168228149414063
001002021 101002021 -0.217014312744141
001002021 001012021 -0.21533203125
001002021 001002121 -0.109348297119141
001002021 011002021 -0.107666015625
001002021 001102021 -0.00168228149414063
001002100 001022100 -0.111030578613281
001002100 001202100 -0.107666015625
001002100 001002102 -0.00168228149414063
001002100 001002120 -0.00168228149414063
001002100 021002100 -0.00168228149414063
001002100 201002100 -0.00168228149414063
001002102 101002102 -0.21533203125
001002102 011002102 -0.109348297119141
001002102 001102102 -0.107666015625
001002102 001002112 -0.00168228149414063
001002102 001012102 1.10769271850586
001002112 001022112 -0.21533203125
001002112 001202112 -0.107666015625
001002112 201002112 -0.107666015625
001002112 021002112 0
001002120 101002120 -0.217014312744141
001002120 001102120 -0.107666015625
001002120 011002120 -0.107666015625
001002120 001002121 -0.00168228149414063
001002120 001012120 1.10769271850586
001002121 001022121 -0.21533203125
001002121 001202121 -0.107666015625
001002121 021002121 -0.107666015625
001002121 201002121 0
001002201 101002201 -0.21533203125
001002201 001012201 -0.109348297119141
001002201 011002201 -0.109348297119141
001002201 001002211 -0.00168228149414063
001002201 001102201 0
001002210 011002210 -0.21533203125
001002210 001012210 -0.109348297119141
001002210 101002210 -0.109348297119141
001002210 001002211 -0.00168228149414063
001002210 001102210 0
001002211 001202211 -0.21533203125
001002211 001022211 -0.107666015625
001002211 201002211 -0.107666015625
001002211 021002211 0
001010002 001010202 -0.109348297119141
001010002 001010022 -0.107666015625
001010002 001210002 -0.00168228149414063
001010002 201010002 -0.00168228149414063
001010002 001012002 0
001010002 021010002 0
001010020 001010220 -0.109348297119141
001010020 001010022 -0.107666015625
001010020 001210020 -0.00168228149414063
001010020 201010020 -0.00168228149414063
001010020 001012020 0
001010020 021010020 0
001010022 001110022 -0.109348297119141
001010022 101010022 -0.109348297119141
001010022 001011022 -0.107666015625
001010022 011010022 -0.107666015625
001010022 001010122 1.10769271850586
001010200 001010202 -0.107666015625
001010200 001010220 -0.107666015625
001010200 001210200 -0.107666015625
001010200 201010200 -0.107666015625
001010200 001012200 0
001010200 021010200 0
001010202 011010202 -0.21533203125
001010202 001010212 -0.107666015625
001010202 001011202 -0.107666015625
001010202 001110202 -0.107666015625
001010202 101010202 -0.107666015625
001010212 001210212 -0.107666015625
001010212 201010212 -0.107666015625
001010212 001012212 0
001010212 021010212 0
001010220 001010221 -0.21533203125
001010220 001011220 -0.21533203125
001010220 101010220 -0.21533203125
001010220 001110220 -0.107666015625
001010220 011010220 -0.107666015625
001010221 001210221 -0.107666015625
001010221 201010221 -0.107666015625
001010221 001012221 0
001010221 021010221 0
001011022 001211022 -0.00168228149414063
001011022 201011022 -0.00168228149414063
001011022 021011022 0
001011022 001011222 1.10769271850586
001011202 001211202 -0.107666015625
001011202 201011202 -0.107666015625
001011202 021011202 0
001011202 001011222 1.109375
001011220 001211220 -0.107666015625
001011220 201011220 -0.107666015625
001011220 021011220 0
001011220 001011222 1.109375
001012000 001012200 -0.00336456298828125
001012000 001012002 -0.00168228149414063
001012000 001012020 -0.00168228149414063
001012000 001212000 -0.00168228149414063
001012000 201012000 -0.00168228149414063
001012000 021012000 0
001012002 011012002 -0.21533203125
001012002 101012002 -0.109348297119141
001012002 001012012 -0.107666015625
001012002 001112002 -0.00168228149414063
001012002 001012102 1.10769271850586
001012012 001012212 -0.00168228149414063
001012012 001212012 -0.00168228149414063
001012012 201012012 -0.00168228149414063
001012012 021012012 0
001012020 101012020 -0.217014312744141
001012020 001012021 -0.107666015625
001012020 011012020 -0.107666015625
001012020 001112020 -0.00168228149414063
001012020 001012120 1.10769271850586
001012021 001012221 -0.00168228149414063
001012021 001212021 -0.00168228149414063
001012021 201012021 -0.00168228149414063
001012021 021012021 0
001012200 011012200 -0.21533203125
001012200 101012200 -0.21533203125
001012200 001012201 -0.107666015625
001012200 001012210 -0.107666015625
001012200 001112200 0
001012201 001212201 -0.107666015625
001012201 201012201 -0.107666015625
001012201 001012221 0
001012201 021012201 0
001012210 001212210 -0.107666015625
001012210 201012210 -0.107666015625
001012210 001012212 0
001012210 021012210 0
001012212 101012212 -0.107666015625
001012212 001112212 0
001012212 011012212 1.001708984375
001012221 011012221 -0.107666015625
001012221 001112221 0
001012221 101012221 1.001708984375
001020000 001020001 -0.109348297119141
001020000 101020000 -0.109348297119141
001020000 001021000 -0.107666015625
001020000 011020000 -0.107666015625
001020000 001020100 -0.00336456298828125
001020000 001020010 -0.00168228149414063
001020000 001120000 -0.00168228149414063
001020001 001220001 -0.109348297119141
001020001 001020021 -0.107666015625
001020001 001022001 -0.107666015625
001020001 021020001 -0.107666015625
001020001 001020201 -0.00168228149414063
001020001 201020001 -0.00168228149414063
001020010 001220010 -0.109348297119141
001020010 201020010 -0.109348297119141
001020010 001020012 -0.107666015625
001020010 001022010 -0.107666015625
001020010 001020210 -0.00168228149414063
001020010 021020010 0
001020012 101020012 -0.109348297119141
001020012 011020012 -0.107666015625
001020012 001020112 -0.00168228149414063
001020012 001120012 -0.00168228149414063
001020012 001021012 0
001020021 101020021 -0.109348297119141
001020021 011020021 -0.107666015625
001020021 001020121 -0.00168228149414063
001020021 001120021 -0.00168228149414063
001020021 001021021 1.109375
001020100 001020102 -0.107666015625
001020100 001020120 -0.107666015625
001020100 001022100 -0.107666015625
001020100 001220100 -0.107666015625
001020100 021020100 -0.107666015625
001020100 201020100 -0.107666015625
001020102 101020102 -0.21533203125
001020102 001120102 -0.107666015625
001020102 011020102 -0.107666015625
001020102 001020112 0
001020102 001021102 0
001020112 001022112 -0.107666015625
001020112 001220112 -0.107666015625
001020112 021020112 0
001020112 201020112 1.109375
001020120 101020120 -0.21533203125
001020120 001020121 -0.107666015625
001020120 001021120 -0.107666015625
001020120 001120120 -0.107666015625
001020120 011020120 -0.107666015625
001020121 001022121 -0.107666015625
001020121 001220121 -0.107666015625
001020121 201020121 0
001020121 021020121 1.109375
001020201 011020201 -0.107666015625
001020201 101020201 -0.107666015625
001020201 001020211 0
001020201 001120201 0
001020201 001021201 1.109375
001020210 001020211 -0.107666015625
001020210 001021210 -0.107666015625
001020210 011020210 -0.107666015625
001020210 101020210 -0.107666015625
001020210 001120210 0
001020211 001220211 -0.21533203125
001020211 001022211 -0.107666015625
001020211 201020211 -0.107666015625
001020211 021020211 0
001021000 001021002 -0.109348297119141
001021000 001021020 -0.109348297119141
001021000 201021000 -0.109348297119141
001021000 021021000 -0.107666015625
001021000 001021200 -0.00336456298828125
001021000 001221000 -0.00168228149414063
001021002 101021002 -0.109348297119141
001021002 011021002 -0.107666015625
001021002 001021102 -0.00168228149414063
001021002 001121002 -0.00168228149414063
001021002 001021012 0
001021012 001021212 -0.00168228149414063
001021012 001221012 -0.00168228149414063
001021012 021021012 0
001021012 201021012 1.10769271850586
001021020 101021020 -0.109348297119141
001021020 011021020 -0.107666015625
001021020 001021120 -0.00168228149414063
001021020 001121020 -0.00168228149414063
001021020 001021021 1.109375
001021102 001021122 -0.107666015625
001021102 021021102 -0.107666015625
001021102 001221102 0
001021102 201021102 1.109375
001021120 001021122 -0.107666015625
001021120 201021120 -0.107666015625
001021120 001221120 0
001021120 021021120 1.109375
001021122 101021122 -0.21533203125
001021122 001121122 -0.107666015625
001021122 011021122 -0.107666015625
001021200 011021200 -0.107666015625
001021200 101021200 -0.107666015625
001021200 001021210 0
001021200 001121200 0
001021200 001021201 1.109375
001021210 201021210 -0.21533203125
001021210 001021212 -0.107666015625
001021210 001221210 -0.107666015625
001021210 021021210 0
001021212 011021212 -0.107666015625
001021212 101021212 -0.107666015625
001021212 001121212 0
001022001 001022101 -0.109348297119141
001022001 101022001 -0.109348297119141
001022001 001022011 -0.107666015625
001022001 011022001 -0.107666015625
001022001 001122001 -0.00168228149414063
001022010 001022110 -0.109348297119141
001022010 101022010 -0.109348297119141
001022010 001022011 -0.107666015625
001022010 011022010 -0.107666015625
001022010 001122010 -0.00168228149414063
001022011 001022211 -0.00168228149414063
001022011 201022011 -0.00168228149414063
001022011 021022011 0
001022011 001222011 1.10769271850586
001022100 101022100 -0.21533203125
001022100 001022101 -0.107666015625
001022100 001022110 -0.107666015625
001022100 001122100 -0.107666015625
001022100 011022100 -0.107666015625
001022101 001022121 -0.107666015625
001022101 021022101 -0.107666015625
001022101 201022101 0
001022101 001222101 1.109375
001022110 001022112 -0.107666015625
001022110 201022110 -0.107666015625
001022110 021022110 0
001022110 001222110 1.109375
001022112 101022112 -0.21533203125
001022112 001122112 -0.107666015625
001022112 011022112 -0.107666015625
001022121 101022121 -0.21533203125
001022121 001122121 -0.107666015625
001022121 011022121 -0.107666015625
001022211 011022211 -0.107666015625
001022211 101022211 -0.107666015625
001022211 001122211 0
001100002 001100022 -0.109348297119141
001100002 001120002 -0.109348297119141
001100002 001100202 -0.107666015625
001100002 201100002 -0.107666015625
001100002 021100002 -0.00168228149414063
001100002 001102002 0
001100020 001100022 -0.109348297119141
001100020 001120020 -0.109348297119141
001100020 001100220 -0.107666015625
001100020 021100020 -0.107666015625
001100020 201100020 -0.00168228149414063
001100020 001102020 0
001100022 001100122 -0.21533203125
001100022 001110022 -0.21533203125
001100022 101100022 -0.21533203125
001100022 001101022 -0.107666015625
001100022 011100022 -0.107666015625
001100122 001120122 -0.21533203125
001100122 021100122 -0.107666015625
001100122 201100122 -0.107666015625
001100122 001102122 0
001100200 001100202 -0.109348297119141
001100200 001100220 -0.109348297119141
001100200 001120200 -0.00336456298828125
001100200 021100200 -0.00168228149414063
001100200 201100200 -0.00168228149414063
001100200 001102200 0
001100202 001110202 -0.109348297119141
001100202 011100202 -0.109348297119141
001100202 001101202 -0.107666015625
001100202 101100202 -0.107666015625
001100202 001100212 -0.00168228149414063
001100212 001120212 -0.107666015625
001100212 201100212 -0.107666015625
001100212 001102212 0
001100212 021100212 0
001100220 001101220 -0.21533203125
001100220 001100221 -0.109348297119141
001100220 001110220 -0.109348297119141
001100220 101100220 -0.109348297119141
001100220 011100220 -0.107666015625
001100221 001120221 -0.107666015625
001100221 021100221 -0.107666015625
001100221 001102221 0
001100221 201100221 0
001101022 001121022 -0.21533203125
001101022 021101022 -0.107666015625
001101022 201101022 -0.107666015625
001101022 001101222 1.109375
001101202 001121202 -0.109348297119141
001101202 201101202 -0.107666015625
001101202 021101202 -0.00168228149414063
001101202 001101222 1.10769271850586
001101220 001121220 -0.109348297119141
001101220 021101220 -0.107666015625
001101220 201101220 -0.00168228149414063
001101220 001101222 1.10769271850586
001102000 001102002 -0.00336456298828125
001102000 001102020 -0.00336456298828125
001102000 001122000 -0.00336456298828125
001102000 001102200 -0.00168228149414063
001102000 021102000 -0.00168228149414063
001102000 201102000 -0.00168228149414063
001102002 001102102 -0.21533203125
001102002 101102002 -0.21533203125
001102002 001112002 -0.109348297119141
001102002 011102002 -0.109348297119141
001102002 001102012 -0.00168228149414063
001102012 001122012 -0.107666015625
001102012 201102012 -0.107666015625
001102012 001102212 0
001102012 021102012 0
001102020 101102020 -0.217014312744141
001102020 001102120 -0.21533203125
001102020 001112020 -0.109348297119141
001102020 011102020 -0.107666015625
001102020 001102021 -0.00168228149414063
001102021 001122021 -0.107666015625
001102021 021102021 -0.107666015625
001102021 001102221 0
001102021 201102021 0
001102102 001122102 -0.109348297119141
001102102 201102102 -0.107666015625
001102102 001102122 -0.00168228149414063
001102102 021102102 -0.00168228149414063
001102120 001122120 -0.109348297119141
001102120 021102120 -0.107666015625
001102120 001102122 -0.00168228149414063
001102120 201102120 -0.00168228149414063
001102122 011102122 -0.107666015625
001102122 101102122 1.001708984375
001102122 001112122 1.109375
001102200 011102200 -0.109348297119141
001102200 101102200 -0.109348297119141
001102200 001112200 -0.00336456298828125
001102200 001102201 -0.00168228149414063
001102200 001102210 -0.00168228149414063
001102201 001102221 -0.00168228149414063
001102201 001122201 -0.00168228149414063
001102201 021102201 -0.00168228149414063
001102201 201102201 0
001102210 001102212 -0.00168228149414063
001102210 001122210 -0.00168228149414063
001102210 201102210 -0.00168228149414063
001102210 021102210 0
001102212 011102212 -0.21533203125
001102212 001112212 -0.107666015625
001102212 101102212 -0.107666015625
001102221 101102221 -0.21533203125
001102221 001112221 -0.107666015625
001102221 011102221 -0.107666015625
001110022 001112022 0
001110022 021110022 0
001110022 201110022 0
001110022 001110222 1.109375
001110202 001112202 0
001110202 021110202 0
001110202 201110202 0
001110202 001110222 1.109375
001110220 001112220 0
001110220 021110220 0
001110220 201110220 0
001110220 001110222 1.109375
001112002 001112022 -0.107666015625
001112002 001112202 -0.107666015625
001112002 021112002 0
001112002 201112002 0
001112020 001112022 -0.107666015625
001112020 001112220 -0.107666015625
001112020 021112020 0
001112020 201112020 0
001112022 101112022 -0.21533203125
001112022 011112022 -0.107666015625
001112022 001112122 1.001708984375
001112200 001112202 -0.107666015625
001112200 001112220 -0.107666015625
001112200 021112200 0
001112200 201112200 0
001112202 011112202 -0.21533203125
001112202 001112212 -0.107666015625
001112202 101112202 -0.107666015625
001112212 021112212 0
001112212 201112212 0
001112220 101112220 -0.21533203125
001112220 001112221 -0.107666015625
001112220 011112220 -0.107666015625
001112221 021112221 0
001112221 201112221 0
001120000 001120002 -0.109348297119141
001120000 001120020 -0.109348297119141
001120000 021120000 -0.107666015625
001120000 201120000 -0.107666015625
001120000 001120200 -0.00168228149414063
001120000 001122000 0
001120002 101120002 -0.21533203125
001120002 001120102 -0.107666015625
001120002 011120002 -0.107666015625
001120002 001120012 0
001120002 001121002 0
001120012 001120212 0
001120012 001122012 0
001120012 021120012 0
001120012 201120012 1.109375
001120020 101120020 -0.21533203125
001120020 001120021 -0.107666015625
001120020 001120120 -0.107666015625
001120020 001121020 -0.107666015625
001120020 011120020 -0.107666015625
001120021 001120221 0
001120021 001122021 0
001120021 201120021 0
001120021 021120021 1.109375
001120102 001120122 -0.107666015625
001120102 021120102 -0.107666015625
001120102 001122102 0
001120102 201120102 1.109375
001120120 001120122 -0.107666015625
001120120 201120120 -0.107666015625
001120120 001122120 0
001120120 021120120 1.109375
001120122 011120122 -0.107666015625
001120122 001121122 0
001120122 101120122 1.001708984375
001120200 001120201 -0.107666015625
001120200 001121200 -0.107666015625
001120200 011120200 -0.107666015625
001120200 101120200 -0.107666015625
001120200 001120210 0
001120201 001120221 -0.107666015625
001120201 021120201 -0.107666015625
001120201 001122201 0
001120201 201120201 0
001120210 001120212 -0.107666015625
001120210 201120210 -0.107666015625
001120210 001122210 0
001120210 021120210 0
001120212 011120212 -0.107666015625
001120212 101120212 -0.107666015625
001120212 001121212 0
001120221 011120221 -0.107666015625
001120221 101120221 -0.107666015625
001120221 001121221 1.109375
001121002 001121022 -0.21533203125
001121002 001121202 -0.107666015625
001121002 021121002 -0.107666015625
001121002 201121002 1.109375
001121020 001121022 -0.21533203125
001121020 001121220 -0.107666015625
001121020 201121020 -0.107666015625
001121020 021121020 1.109375
001121022 101121022 -0.21533203125
001121022 001121122 -0.107666015625
001121022 011121022 -0.107666015625
001121122 021121122 1.109375
001121122 201121122 1.109375
001121200 001121202 -0.21533203125
001121200 001121220 -0.21533203125
001121200 021121200 -0.107666015625
001121200 201121200 -0.107666015625
001121202 011121202 -0.107666015625
001121202 101121202 -0.107666015625
001121202 001121212 0
001121212 021121212 0
001121212 201121212 1.109375
001121220 011121220 -0.107666015625
001121220 101121220 -0.107666015625
001121220 001121221 1.109375
001122000 101122000 -0.21533203125
001122000 001122100 -0.109348297119141
001122000 011122000 -0.107666015625
001122000 001122001 -0.00168228149414063
001122000 001122010 -0.00168228149414063
001122001 001122021 -0.107666015625
001122001 021122001 -0.107666015625
001122001 001122201 0
001122001 201122001 0
001122010 001122012 -0.107666015625
001122010 201122010 -0.107666015625
001122010 001122210 0
001122010 021122010 0
001122012 101122012 -0.21533203125
001122012 001122112 -0.107666015625
001122012 011122012 -0.107666015625
001122021 101122021 -0.21533203125
001122021 001122121 -0.107666015625
001122021 011122021 -0.107666015625
001122100 001122102 -0.107666015625
001122100 001122120 -0.107666015625
001122100 021122100 -0.107666015625
001122100 201122100 -0.107666015625
001122102 011122102 -0.107666015625
001122102 001122112 0
001122102 101122102 1.001708984375
001122112 021122112 0
001122112 201122112 1.109375
001122120 011122120 -0.107666015625
001122120 001122121 0
001122120 101122120 1.001708984375
001122121 201122121 0
001122121 021122121 1.109375
001122201 011122201 -0.107666015625
001122201 101122201 -0.107666015625
001122201 001122211 0
001122210 011122210 -0.107666015625
001122210 101122210 -0.107666015625
001122210 001122211 0
001122211 021122211 0
001122211 201122211 0
001200000 001200001 -0.111030578613281
001200000 001210000 -0.111030578613281
001200000 001200100 -0.109348297119141
001200000 011200000 -0.109348297119141
001200000 101200000 -0.109348297119141
001200000 001201000 -0.107666015625
001200000 001200010 -0.00336456298828125
001200001 001220001 -0.109348297119141
001200001 001200201 -0.107666015625
001200001 001202001 -0.107666015625
001200001 201200001 -0.107666015625
001200001 001200021 -0.00168228149414063
001200001 021200001 -0.00168228149414063
001200010 001220010 -0.109348297119141
001200010 201200010 -0.109348297119141
001200010 001200210 -0.107666015625
001200010 001202010 -0.107666015625
001200010 001200012 -0.00168228149414063
001200010 021200010 0
001200012 001210012 -0.21533203125
001200012 011200012 -0.21533203125
001200012 001200112 -0.107666015625
001200012 101200012 -0.107666015625
001200012 001201012 0
001200021 001210021 -0.21533203125
001200021 101200021 -0.21533203125
001200021 001200121 -0.107666015625
001200021 011200021 -0.107666015625
001200021 001201021 1.109375
001200100 001220100 -0.111030578613281
001200100 001202100 -0.107666015625
001200100 001200102 -0.00168228149414063
001200100 001200120 -0.00168228149414063
001200100 021200100 -0.00168228149414063
001200100 201200100 -0.00168228149414063
001200102 011200102 -0.109348297119141
001200102 101200102 -0.107666015625
001200102 001200112 -0.00168228149414063
001200102 001201102 0
001200102 001210102 1.10769271850586
001200112 001220112 -0.21533203125
001200112 001202112 -0.107666015625
001200112 201200112 -0.107666015625
001200112 021200112 0
001200120 001200121 -0.109348297119141
001200120 101200120 -0.109348297119141
001200120 001201120 -0.107666015625
001200120 011200120 -0.107666015625
001200120 001210120 1.10769271850586
001200121 001220121 -0.21533203125
001200121 001202121 -0.107666015625
001200121 021200121 -0.107666015625
001200121 201200121 0
001200201 101200201 -0.21533203125
001200201 001210201 -0.109348297119141
001200201 011200201 -0.109348297119141
001200201 001200211 -0.00168228149414063
001200201 001201201 1.109375
001200210 011200210 -0.21533203125
001200210 001200211 -0.109348297119141
001200210 001210210 -0.109348297119141
001200210 101200210 -0.109348297119141
001200210 001201210 -0.107666015625
001200211 001202211 -0.107666015625
001200211 001220211 -0.107666015625
001200211 021200211 0
001200211 201200211 1.109375
001201000 001201200 -0.109348297119141
001201000 201201000 -0.109348297119141
001201000 001201002 -0.00336456298828125
001201000 001201020 -0.00336456298828125
001201000 001221000 -0.00336456298828125
001201000 021201000 -0.00168228149414063
001201002 001211002 -0.109348297119141
001201002 011201002 -0.109348297119141
001201002 001201102 -0.107666015625
001201002 101201002 -0.107666015625
001201002 001201012 -0.00168228149414063
001201012 201201012 -0.21533203125
001201012 001201212 -0.107666015625
001201012 001221012 -0.107666015625
001201012 021201012 0
001201020 001211020 -0.109348297119141
001201020 101201020 -0.109348297119141
001201020 001201120 -0.107666015625
001201020 011201020 -0.107666015625
001201020 001201021 1.10769271850586
001201102 001221102 -0.109348297119141
001201102 201201102 -0.107666015625
001201102 001201122 -0.00168228149414063
001201102 021201102 -0.00168228149414063
001201120 001221120 -0.109348297119141
001201120 021201120 -0.107666015625
001201120 001201122 -0.00168228149414063
001201120 201201120 -0.00168228149414063
001201122 011201122 -0.107666015625
001201122 101201122 -0.107666015625
001201122 001211122 1.109375
001201200 011201200 -0.109348297119141
001201200 101201200 -0.109348297119141
001201200 001211200 -0.00336456298828125
001201200 001201210 -0.00168228149414063
001201200 001201201 1.10769271850586
001201210 001201212 -0.00168228149414063
001201210 001221210 -0.00168228149414063
001201210 021201210 0
001201210 201201210 1.10769271850586
001201212 011201212 -0.21533203125
001201212 001211212 -0.107666015625
001201212 101201212 -0.107666015625
001202001 001212001 -0.217014312744141
001202001 001202101 -0.21533203125
001202001 101202001 -0.21533203125
001202001 001202011 -0.109348297119141
001202001 011202001 -0.109348297119141
001202010 001212010 -0.217014312744141
001202010 001202110 -0.21533203125
001202010 011202010 -0.21533203125
001202010 001202011 -0.109348297119141
001202010 101202010 -0.109348297119141
001202011 001202211 -0.107666015625
001202011 201202011 -0.107666015625
001202011 021202011 0
001202011 001222011 1.109375
001202100 001202101 -0.109348297119141
001202100 001202110 -0.109348297119141
001202100 011202100 -0.109348297119141
001202100 101202100 -0.109348297119141
001202100 001212100 1.10601043701172
001202101 001202121 -0.00168228149414063
001202101 021202101 -0.00168228149414063
001202101 201202101 0
001202101 001222101 1.10769271850586
001202110 001202112 -0.00168228149414063
001202110 201202110 -0.00168228149414063
001202110 021202110 0
001202110 001222110 1.10769271850586
001202112 011202112 -0.21533203125
001202112 101202112 -0.107666015625
001202112 001212112 1.001708984375
001202121 101202121 -0.21533203125
001202121 011202121 -0.107666015625
001202121 001212121 1.001708984375
001202211 001212211 -0.21533203125
001202211 011202211 -0.21533203125
001202211 101202211 -0.21533203125
001210000 001210200 -0.109348297119141
001210000 201210000 -0.107666015625
001210000 001210002 -0.00168228149414063
001210000 001210020 -0.00168228149414063
001210000 001212000 0
001210000 021210000 0
001210002 011210002 -0.21533203125
001210002 001210012 -0.107666015625
001210002 101210002 -0.107666015625
001210002 001211002 0
001210002 001210102 1.109375
001210012 001210212 -0.107666015625
001210012 201210012 -0.107666015625
001210012 001212012 0
001210012 021210012 0
001210020 001210021 -0.21533203125
001210020 101210020 -0.21533203125
001210020 001211020 -0.107666015625
001210020 011210020 -0.107666015625
001210020 001210120 1.109375
001210021 001210221 -0.107666015625
001210021 201210021 -0.107666015625
001210021 001212021 0
001210021 021210021 0
001210200 001210201 -0.21533203125
001210200 011210200 -0.21533203125
001210200 101210200 -0.21533203125
001210200 001210210 -0.107666015625
001210200 001211200 -0.107666015625
001210201 001210221 0
001210201 001212201 0
001210201 021210201 0
001210201 201210201 1.109375
001210210 001210212 0
001210210 001212210 0
001210210 021210210 0
001210210 201210210 1.109375
001210212 101210212 -0.107666015625
001210212 001211212 0
001210212 011210212 1.001708984375
001210221 011210221 -0.107666015625
001210221 101210221 1.001708984375
001210221 001211221 1.109375
001211002 001211202 -0.21533203125
001211002 001211022 -0.107666015625
001211002 201211002 -0.107666015625
001211002 021211002 0
001211020 001211220 -0.21533203125
001211020 001211022 -0.107666015625
001211020 201211020 -0.107666015625
001211020 021211020 0
001211022 011211022 -0.107666015625
001211022 101211022 -0.107666015625
001211022 001211122 1.109375
001211200 001211202 -0.107666015625
001211200 001211220 -0.107666015625
001211200 021211200 0
001211200 201211200 1.109375
001211202 011211202 -0.21533203125
001211202 001211212 -0.107666015625
001211202 101211202 -0.107666015625
001211212 021211212 0
001211212 201211212 1.109375
001211220 101211220 -0.21533203125
001211220 011211220 -0.107666015625
001211220 001211221 1.001708984375
001212000 011212000 -0.21533203125
001212000 101212000 -0.21533203125
001212000 001212001 -0.109348297119141
001212000 001212010 -0.109348297119141
001212000 001212100 1.10769271850586
001212001 001212201 -0.107666015625
001212001 201212001 -0.107666015625
001212001 001212021 0
001212001 021212001 0
001212010 001212210 -0.107666015625
001212010 201212010 -0.107666015625
001212010 001212012 0
001212010 021212010 0
001212012 101212012 -0.107666015625
001212012 011212012 1.001708984375
001212012 001212112 1.109375
001212021 011212021 -0.107666015625
001212021 101212021 1.001708984375
001212021 001212121 1.109375
001212201 011212201 -0.21533203125
001212201 001212211 -0.107666015625
001212201 101212201 1.001708984375
001212210 101212210 -0.21533203125
001212210 001212211 -0.107666015625
001212210 011212210 1.001708984375
001212211 021212211 0
001212211 201212211 1.109375
001220001 001220011 -0.107666015625
001220001 001220101 -0.107666015625
001220001 011220001 -0.107666015625
001220001 101220001 -0.107666015625
001220001 001221001 1.109375
001220010 001220011 -0.21533203125
001220010 001220110 -0.107666015625
001220010 001221010 -0.107666015625
001220010 011220010 -0.107666015625
001220010 101220010 -0.107666015625
001220011 001220211 -0.107666015625
001220011 201220011 -0.107666015625
001220011 021220011 0
001220011 001222011 1.109375
001220100 001220101 -0.21533203125
001220100 001220110 -0.107666015625
001220100 001221100 -0.107666015625
001220100 011220100 -0.107666015625
001220100 101220100 -0.107666015625
001220101 001220121 -0.107666015625
001220101 021220101 -0.107666015625
001220101 201220101 0
001220101 001222101 1.109375
001220110 001220112 -0.107666015625
001220110 201220110 -0.107666015625
001220110 021220110 0
001220110 001222110 1.109375
001220112 011220112 -0.107666015625
001220112 101220112 -0.107666015625
001220112 001221112 0
001220121 011220121 -0.107666015625
001220121 101220121 -0.107666015625
001220121 001221121 1.109375
001220211 011220211 -0.107666015625
001220211 101220211 -0.107666015625
001220211 001221211 1.109375
001221000 011221000 -0.107666015625
001221000 101221000 -0.107666015625
001221000 001221010 -0.00168228149414063
001221000 001221100 -0.00168228149414063
001221000 001221001 1.10769271850586
001221010 201221010 -0.21533203125
001221010 001221012 -0.107666015625
001221010 001221210 -0.107666015625
001221010 021221010 0
001221012 011221012 -0.107666015625
001221012 101221012 -0.107666015625
001221012 001221112 0
001221100 001221102 -0.107666015625
001221100 001221120 -0.107666015625
001221100 021221100 -0.107666015625
001221100 201221100 -0.107666015625
001221102 011221102 -0.107666015625
001221102 101221102 -0.107666015625
001221102 001221112 0
001221112 021221112 0
001221112 201221112 1.109375
001221120 011221120 -0.107666015625
001221120 101221120 -0.107666015625
001221120 001221121 1.109375
001221210 011221210 -0.107666015625
001221210 101221210 -0.107666015625
001221210 001221211 1.109375
002000001 002010001 -0.111030578613281
002000001 002000011 -0.109348297119141
002000001 002000101 -0.109348297119141
002000001 102000001 -0.109348297119141
002000001 002100001 -0.00336456298828125
002000001 002001001 -0.00168228149414063
002000001 012000001 -0.00168228149414063
002000010 002010010 -0.111030578613281
002000010 002000011 -0.109348297119141
002000010 002000110 -0.109348297119141
002000010 012000010 -0.107666015625
002000010 002100010 -0.00336456298828125
002000010 102000010 -0.00336456298828125
002000010 002001010 -0.00168228149414063
002000011 002000211 -0.109348297119141
002000011 002020011 -0.109348297119141
002000011 202000011 -0.109348297119141
002000011 022000011 -0.107666015625
002000011 002200011 -0.00336456298828125
002000011 002002011 -0.00168228149414063
002000100 002000101 -0.109348297119141
002000100 002000110 -0.109348297119141
002000100 002100100 -0.109348297119141
002000100 102000100 -0.109348297119141
002000100 002010100 -0.00504684448242188
002000100 002001100 -0.00168228149414063
002000100 012000100 -0.00168228149414063
002000101 022000101 -0.109348297119141
002000101 202000101 -0.107666015625
002000101 002020101 -0.00336456298828125
002000101 002000121 -0.00168228149414063
002000101 002002101 -0.00168228149414063
002000101 002200101 -0.00168228149414063
002000110 002000112 -0.109348297119141
002000110 002002110 -0.109348297119141
002000110 202000110 -0.109348297119141
002000110 022000110 -0.107666015625
002000110 002020110 -0.00336456298828125
002000110 002200110 -0.00168228149414063
002000112 002010112 -0.109348297119141
002000112 002100112 -0.109348297119141
002000112 012000112 -0.107666015625
002000112 102000112 -0.107666015625
002000112 002001112 -0.00168228149414063
002000121 102000121 -0.21533203125
002000121 002010121 -0.109348297119141
002000121 002100121 -0.109348297119141
002000121 002001121 -0.00168228149414063
002000121 012000121 0
002000211 002010211 -0.217014312744141
002000211 012000211 -0.107666015625
002000211 102000211 -0.107666015625
002000211 002001211 -0.00168228149414063
002000211 002100211 -0.00168228149414063
002001000 002011000 -0.111030578613281
002001000 002101000 -0.109348297119141
002001000 002001001 -0.00336456298828125
002001000 002001010 -0.00336456298828125
002001000 002001100 -0.00336456298828125
002001000 102001000 -0.00336456298828125
002001000 012001000 -0.00168228149414063
002001001 002001201 -0.109348297119141
002001001 002021001 -0.109348297119141
002001001 022001001 -0.109348297119141
002001001 202001001 -0.109348297119141
002001001 002001021 -0.00168228149414063
002001001 002201001 -0.00168228149414063
002001010 202001010 -0.111030578613281
002001010 002001210 -0.109348297119141
002001010 002021010 -0.109348297119141
002001010 022001010 -0.107666015625
002001010 002001012 -0.00168228149414063
002001010 002201010 -0.00168228149414063
002001012 002011012 -0.21533203125
002001012 002101012 -0.109348297119141
002001012 012001012 -0.107666015625
002001012 002001112 -0.00168228149414063
002001012 102001012 -0.00168228149414063
002001021 002011021 -0.21533203125
002001021 002101021 -0.109348297119141
002001021 102001021 -0.109348297119141
002001021 002001121 -0.00168228149414063
002001021 012001021 0
002001100 022001100 -0.109348297119141
002001100 202001100 -0.109348297119141
002001100 002021100 -0.00336456298828125
002001100 002001102 -0.00168228149414063
002001100 002001120 -0.00168228149414063
002001100 002201100 0
002001102 002101102 -0.21533203125
002001102 002011102 -0.109348297119141
002001102 102001102 -0.107666015625
002001102 002001112 -0.00168228149414063
002001102 012001102 -0.00168228149414063
002001112 202001112 -0.21533203125
002001112 002021112 -0.107666015625
002001112 022001112 -0.107666015625
002001112 002201112 0
002001120 002101120 -0.21533203125
002001120 002011120 -0.109348297119141
002001120 102001120 -0.109348297119141
002001120 002001121 -0.00168228149414063
002001120 012001120 0
002001121 022001121 -0.21533203125
002001121 002021121 -0.107666015625
002001121 202001121 -0.107666015625
002001121 002201121 0
002001201 002011201 -0.217014312744141
002001201 002101201 -0.107666015625
002001201 102001201 -0.107666015625
002001201 002001211 -0.00168228149414063
002001201 012001201 -0.00168228149414063
002001210 002011210 -0.217014312744141
002001210 002101210 -0.107666015625
002001210 012001210 -0.107666015625
002001210 002001211 -0.00168228149414063
002001210 102001210 -0.00168228149414063
002001211 202001211 -0.21533203125
002001211 002201211 -0.107666015625
002001211 022001211 -0.107666015625
002001211 002021211 1.109375
002002011 002012011 -0.21533203125
002002011 102002011 -0.109348297119141
002002011 012002011 -0.107666015625
002002011 002102011 -0.00168228149414063
002002011 002002111 1.10769271850586
002002101 102002101 -0.21533203125
002002101 002012101 -0.109348297119141
002002101 002102101 -0.107666015625
002002101 012002101 -0.00168228149414063
002002101 002002111 1.10769271850586
002002110 002012110 -0.109348297119141
002002110 102002110 -0.109348297119141
002002110 002102110 -0.107666015625
002002110 012002110 -0.107666015625
002002110 002002111 1.10769271850586
002010000 002010001 -0.109348297119141
002010000 002010010 -0.109348297119141
002010000 002110000 -0.109348297119141
002010000 102010000 -0.109348297119141
002010000 002011000 -0.107666015625
002010000 012010000 -0.107666015625
002010000 002010100 -0.00336456298828125
002010001 202010001 -0.109348297119141
002010001 022010001 -0.107666015625
002010001 002010201 -0.00168228149414063
002010001 002210001 -0.00168228149414063
002010001 002010021 0
002010001 002012001 0
002010010 202010010 -0.109348297119141
002010010 002010012 -0.107666015625
002010010 002012010 -0.107666015625
002010010 022010010 -0.107666015625
002010010 002010210 -0.00168228149414063
002010010 002210010 -0.00168228149414063
002010012 002110012 -0.109348297119141
002010012 002011012 -0.107666015625
002010012 002010112 -0.00168228149414063
002010012 102010012 -0.00168228149414063
002010012 012010012 1.109375
002010021 002110021 -0.109348297119141
002010021 002011021 -0.107666015625
002010021 002010121 -0.00168228149414063
002010021 012010021 0
002010021 102010021 1.10769271850586
002010100 002010102 -0.107666015625
002010100 002012100 -0.107666015625
002010100 022010100 -0.107666015625
002010100 202010100 -0.107666015625
002010100 002010120 0
002010100 002210100 0
002010102 002110102 -0.21533203125
002010102 002010112 -0.107666015625
002010102 002011102 -0.107666015625
002010102 012010102 -0.107666015625
002010102 102010102 -0.107666015625
002010112 022010112 -0.107666015625
002010112 202010112 -0.107666015625
002010112 002210112 0
002010112 002012112 1.109375
002010120 002110120 -0.21533203125
002010120 102010120 -0.21533203125
002010120 002010121 -0.107666015625
002010120 002011120 -0.107666015625
002010120 012010120 0
002010121 022010121 -0.107666015625
002010121 202010121 -0.107666015625
002010121 002012121 0
002010121 002210121 0
002010201 002010211 -0.107666015625
002010201 002011201 -0.107666015625
002010201 002110201 -0.107666015625
002010201 012010201 -0.107666015625
002010201 102010201 1.109375
002010210 002010211 -0.107666015625
002010210 002011210 -0.107666015625
002010210 002110210 -0.107666015625
002010210 102010210 -0.107666015625
002010210 012010210 1.109375
002010211 202010211 -0.21533203125
002010211 002210211 -0.107666015625
002010211 022010211 -0.107666015625
002010211 002012211 0
002011000 202011000 -0.109348297119141
002011000 022011000 -0.107666015625
002011000 002011200 -0.00336456298828125
002011000 002011002 -0.00168228149414063
002011000 002011020 -0.00168228149414063
002011000 002211000 -0.00168228149414063
002011002 002011012 -0.107666015625
002011002 012011002 -0.107666015625
002011002 002011102 -0.00168228149414063
002011002 102011002 -0.00168228149414063
002011002 002111002 1.10769271850586
002011012 202011012 -0.109348297119141
002011012 022011012 -0.107666015625
002011012 002011212 -0.00168228149414063
002011012 002211012 -0.00168228149414063
002011020 102011020 -0.109348297119141
002011020 002011021 -0.107666015625
002011020 002011120 -0.00168228149414063
002011020 012011020 0
002011020 002111020 1.10769271850586
002011021 202011021 -0.109348297119141
002011021 022011021 -0.107666015625
002011021 002011221 -0.00168228149414063
002011021 002211021 -0.00168228149414063
002011102 022011102 -0.107666015625
002011102 202011102 -0.107666015625
002011102 002011122 0
002011102 002211102 0
002011120 022011120 -0.107666015625
002011120 202011120 -0.107666015625
002011120 002011122 0
002011120 002211120 0
002011122 102011122 -0.107666015625
002011122 012011122 0
002011122 002111122 1.001708984375
002011200 002011201 -0.107666015625
002011200 002011210 -0.107666015625
002011200 012011200 -0.107666015625
002011200 102011200 -0.107666015625
002011200 002111200 1.109375
002011201 202011201 -0.21533203125
002011201 002211201 -0.107666015625
002011201 022011201 -0.107666015625
002011201 002011221 0
002011210 202011210 -0.21533203125
002011210 002211210 -0.107666015625
002011210 022011210 -0.107666015625
002011210 002011212 0
002011212 102011212 0
002011212 002111212 1.109375
002011212 012011212 1.109375
002011221 012011221 0
002011221 002111221 1.109375
002011221 102011221 1.109375
002012001 002012011 -0.21533203125
002012001 002012101 -0.109348297119141
002012001 012012001 -0.107666015625
002012001 002112001 -0.00168228149414063
002012001 102012001 1.10769271850586
002012010 002012011 -0.21533203125
002012010 002012110 -0.109348297119141
002012010 102012010 -0.109348297119141
002012010 002112010 -0.00168228149414063
002012010 012012010 1.109375
002012011 202012011 -0.109348297119141
002012011 022012011 -0.107666015625
002012011 002012211 -0.00168228149414063
002012011 002212011 -0.00168228149414063
002012100 002012101 -0.21533203125
002012100 002012110 -0.21533203125
002012100 102012100 -0.21533203125
002012100 002112100 -0.107666015625
002012100 012012100 -0.107666015625
002012101 022012101 -0.107666015625
002012101 202012101 -0.107666015625
002012101 002012121 0
002012101 002212101 0
002012110 022012110 -0.107666015625
002012110 202012110 -0.107666015625
002012110 002212110 0
002012110 002012112 1.109375
002012121 002112121 -0.107666015625
002012121 012012121 0
002012121 102012121 1.001708984375
002012211 002112211 0
002012211 012012211 1.109375
002012211 102012211 1.109375
002020011 002120011 -0.00168228149414063
002020011 102020011 -0.00168228149414063
002020011 002021011 0
002020011 012020011 0
002020011 002020111 1.10769271850586
002020101 002120101 -0.107666015625
002020101 102020101 -0.107666015625
002020101 002021101 0
002020101 012020101 0
002020101 002020111 1.109375
002020110 002120110 -0.107666015625
